2.7522141694996014 -5.999563838338026 8.446480914132957 -7.109039950431816 -0.21478172996656852 7.2878840950847055 -3.5943981209435014 -7.853178633140199 -8.879975156732687 7.840280690753325 1.4354187826266285 -3.7841986387426423 -9.152458383166628 -3.2110158322516167 6.578840287194885 15.557222647625403 2.6311308214558067 -0.8851176730284915 1.2103724106172846 -15.444789679754837 7.37385199539221 3.689000076659039 9.020251180221122 13.356251849165828 1.9797995921652274 6.256155309489624 0.22849443044303408 2.854247689499827 -3.5758302247692155 -4.111708773709431 -4.224873806755308 1.390731542293084 5.7506631672297965 1.6796319073336619 -3.4134823072814617 -7.985713158796643 -0.10062425986054446 -7.094525955101269 -8.696728130612119 4.623867399752274 6.405823727402857 -3.5095063836785143 8.565084404877304 8.521586631587224 -2.0310612380710515 -6.570878815594721 5.455391899080067 -7.054604735316724 -3.9430530147909546 -1.4778001401713392 13.520667920483563 7.833639896554468 8.559455865210046 1.4899903635036758 -11.427472779508376 -1.2762726494900551 -0.8076147518147168 0.46130683355376906 -7.030628576892463 -15.429856757706819 -4.837256051750062 -2.636587060209579 4.969394596025336 5.920858686961154 -12.809344471239765 3.7433694084583893 -1.0815900165888108 1.4245387166664951 -8.90010608138866 2.1114830751233673 -5.961982045315226 -6.886189456482367 12.145955196435198 -5.285733472609349 -5.269998457656012 7.024344438056538 6.056235792652337 -2.992147751376728 -0.4157540088265145 10.497448301544699 -4.737130864155226 -4.554361949082471 5.966014641007014 -6.601788343995078 -1.0757779040165079 -4.06565295791143 -15.47401642104429 -5.369556636525851 -5.237589466916602 0.3313940275494881 8.923565108555792 -17.600833194968914 -6.8555461626708905 -12.056032285223878 2.5510594618367217 4.373370801151766 -1.8151609297459066 15.748485853864013 -7.2967491689591935 11.834956996374189 -1.8355420405079033 -6.197623050564583 -3.8669408343724925 -0.05370309108040616 -4.612326266200306 1.1711276475656436 4.960622477627285 -3.0245797777082704 8.301088064812957 -4.281650654778413 -8.59100844341737 -8.531948857113374 1.5611430963084796 -4.873587712193482 6.126609620249833 -12.758286421276898 -0.16009440052031287 7.975402828279794 -0.9380353247716655 -0.5483126473556295 -8.893683161332413 6.158662959756437 -7.590021912738133 -7.23771856129853 -5.298364449272799 -13.518577716980184 -3.2541911202113236 7.318306478182161 -1.9727936403112938 -12.41866257791972 6.278358558049176 10.24218193358174 -8.560208251597139 6.217487225399827 0.7139683834331794 -1.4874194556350817 5.770799365362929 7.654449910725512 -3.6314165826175846 0.4400696288216003 -8.270857414440286 3.15341698364629 -1.045439742301578 -3.4178233282376502 -2.151156827734994 -5.540520443714934 0.42895285896062374 -11.063619826625075 4.76545122665875 0.13512603959811173 12.16836715215683 4.298507543807662 4.262752476663256 0.13598604116560753 -18.258774587439493 -4.314172164507601 0.14909088852456626 8.078689610007979 -3.693980400648701 3.36833219237359 10.701754306188457 -5.544197443371347 -5.2423517398378365 6.216993826669588 11.322438649599107 16.42787058765474 -26.858585142432666 -8.822371117669086 -4.103640001114734 -3.348750419884209 11.616370595834965 5.162561724421738 3.0417054496204066 -11.013104536845628 6.1302993773204575 -2.110211093821631 -2.820252483352361 9.886741758653015 2.092252646820314 4.464584021979098 -3.302753520167927 13.21086861991413 8.037168271511952 -0.9991238449012299 -4.769099456509064 5.3421127152966905 6.404732425954694 -4.09977032161518 0.8691833254558365 -6.648242152143016 -1.209643676852814 15.1513150494627 18.50057747992458 -10.808692804184808 1.3287876904335174 -3.802490549803874 2.7666323595185096 -6.985927435585832 -15.195206249945155 8.826583348565439 2.0693323723441357 -6.421092677599793 18.801365234569783 -4.6394096029283345 -2.337829676380222 -10.645982799001203 4.9395712149430455 2.1813822830871255 -7.922934115975048 9.87020785529861 14.206160858097963 -8.487430349616801 2.6984046693688755 4.343429676458107 2.360311864224907 -15.710839646400418 1.3563461504845309 -3.969777701049426 -3.9088765198346582 -7.261807005887681 -2.0779731186578605 -3.207873460352575 -1.7690922308241968 -14.222452895330917 3.102373312589709 8.626259888821147 -15.700786000565348 7.664460598019664 1.2055551134495957 11.671174602182358 0.6097875669807311 -8.245698723336549 8.894688543344285 24.60047640586519 0.5399118527410361 9.51735780572681 -5.500299109914125 7.582251753962821 -2.6436148116984706 0.805962750549941 -5.126981788980135 -11.923407833560292 -4.612171117527438 -19.789110323217148 3.333620168602508 6.581682478121612 -16.443931726479214 4.783067913782801 3.222849919065223 12.226035481009802 -11.611832664210286 22.538957528067463 9.959312218508892 4.04716698699792 -3.817529475464431 1.0060509087912979 -3.4481302924966353 10.963026771826895 -2.9208939762144843 23.536523165226615 -1.8596016532870432 -12.904346826497683 11.99555202342081 -11.021562825797968 9.079995763010222 0.688976413678306 -11.430657634913988 -6.556494124855839 -2.7397456843920667 -7.542432373231048 0.0206478975861209 -1.343268005558513 9.60675705153929 -1.068427098300491 -20.437968446643755 -7.354735888440162 -2.8411178439601934 -3.3808098146402528 3.0295381733561304 -17.699895658086728 -3.851178694938876 -5.593294065022418 1.5266855084672042 1.3339385162400414 2.3082097148785015 -5.3163759239111785 -12.013248044485367 -5.514225032436707 -14.648191947737295 -2.054798653280748 -2.833240450835391 1.9370264015833962 4.355392103909838 -2.50368782691967 -23.352054893536625 -1.467209472295462 -6.023072747404152 7.263607193187244 6.670840370980397 -0.8152038956502919 -9.553608386732412 10.927768393790515 2.44841641866309 6.098824759948502 -3.932887720342483 -11.690718962106297 11.382995116295522 -7.271052417815898 6.737601620856351 3.751731510465174 -1.1750306493950697 -2.647164359051991 -5.749172768656059 23.237708782550378 -1.0955866952203062 -1.1242345752078007 3.524585140593251 2.7830574066408342 2.225780196586131 0.12068619163409144 -9.8512754555169 7.4880769002680285 -4.224020044400153 -19.685616211922255 -4.797421719087942 8.813044596497246 -7.145474189993531 -5.089818566681689 -1.3615710237715142 2.7296637555600958 -13.78430732036056 -1.5377965591098541 -0.6859169684228129 12.528089834626417 -4.711777322805709 5.962360085210369 0.7523548033960621 3.594232946079552 -3.17060271269407 -8.8671837829666 0.04371023889636061 -15.470020788775392 4.768684568026374 1.5732200729651473 -5.233250587507539 -1.5506757570317404 2.8548858144573894 -17.964108642233015 1.6583761559007864 11.572584824978465 0.9052644883222709 2.314079355988689 1.0781615298358291 -10.862144132381998 4.781557536479345 6.299613679379728 4.792753637665123 -3.5363485303170448 6.967810519760845 -4.120801419730147 1.328942303388733 0.19005704325245687 -4.450185403048724 10.524081230659323 5.77210188005277 -7.111305388746359 4.820528514158614 -1.301334867297027 2.8228816293239807 -10.817728119609356 -4.7420734786231336 2.1627266771474813 10.388763602906215 2.678803161448048 -8.319708397870441 18.747553368220522 -4.458062292193459 2.4465385563602524 4.862944785437672 -0.8961435981612488 16.785357566561046 -1.2617272597634657 12.406185948268675 -8.704213733770091 3.7669456067518343 -7.196219597175078 5.1371953400297885 -3.368135510516666 -7.064432749915464 -17.79945257817653 -3.777387121000852 2.718952832577448 -8.547532296274024 2.5337042295637664 -2.4219049237508417 5.112634885974894 -0.3072619998252327 -14.712819828261992 13.223171281526938 -1.3421201980511388 5.656521666770417 13.044042567338808 5.375461790392702 -2.4561759138726837 3.6093125787201883 0.6930482919501171 2.6691585437823706 -11.914144807203023 -4.760556916776407 10.782686713909024 12.957226666075229 5.058904206840877 -1.7920122537685157 8.100570970464288 -0.0777675293151382 -5.69467065583609 -4.4640366076579445 -3.6302601582960183 -7.5443771515276055 1.0788290769215103 -2.0076364911259037 -12.629791598008051 9.207427972472335 2.8572154262741907 8.910743404533036 -11.229968293329819 11.512778350640401 -13.180558029577659 -1.4218919770447505 5.997042148320142 -6.366775671890838 -5.973846889710622 4.7644433257362255 -12.267813031064966 11.64710479049949 5.666559420048158 -4.712963331698545 -1.4117765469151908 -0.7840369266348451 3.193993118903372 -6.120657136912657 -7.210577447856622 -8.966699618766837 -4.9082003008455 0.42723624722418163 -0.3525240960226953 -3.359564792480179 9.464898660744668 9.907711726636894 16.657326139175403 7.394527898190486 0.5108642596250008 -12.628928972045033 -1.8256300017456153 -0.16091089629978483 16.310598797465385 6.719380697235196 -8.309027557065482 4.15886074210066 -1.8333873010248274 6.3245831542251825 -2.216279125039127 -6.111510494611722 -0.9458098966762798 15.887381182184921 6.417307622775219 -6.221219571478296 14.87060775048269 -11.150120071665091 1.1854182054194786 -10.082693313236755 8.005166031332164 -3.238960741229865 -10.372474724138165 -1.470015606390551 1.1230133076508642 -1.3866637924977883 4.025243419711964 -6.297687653488762 3.214758528905253 -3.679182286864754 -3.4295002879329934 3.458266154428471 -3.806639906179581 -9.292672231443241 -0.9252542930016405 2.411193631677667 -7.488465755641199 10.22427821951085 -4.863913058096584 0.07411300153755662 -4.090412924216179 -8.113764023326254 -15.41878864976942 3.97300203491159 -9.59434821731283 -9.446125543034553 8.541804301177851 0.4635536059365215 3.2778617442167546 -7.890990774056546 -6.166176743469062 0.7567025590819313 -2.7668240367700596 -7.017829706576652 -4.325555773504596 -3.116114518413884 -7.0691401716282485 12.620665489156734 5.710144461010217 -3.2033806339328597 -1.9632446121871299 -0.11833095933996951 0.9475688784591261 -6.051182961085626 0.022354240059648145 3.374148373155009 5.923925041690003 -8.402702015156807 -11.888775943138361 -0.4795040389499904 -3.296848583567952 3.66274576997338 10.39600394876794 -9.659802374094374 -4.5181175651846495 2.1810548639083875 2.606754961896078 3.116909802615134 -2.5912302667367926 0.8958530877153723 -7.449925625079784
3.4646961324361785 -6.641414080561459 8.145260368849959 -7.430901064568019 -0.21478172996656852 7.193359526948048 -3.320798305265463 -7.853178633140199 -8.128781252070373 7.506192244956452 1.4354187826266285 -3.7841986387426423 -9.152458383166628 -3.2110158322516167 6.5644924278528975 15.557222647625403 1.965051303747985 -0.8851176730284915 2.187902818264874 -16.586094392636998 7.0670458833514935 3.689000076659039 7.863632409734604 13.356251849165828 1.9797995921652274 5.554447883622636 0.1786304672598864 4.654138032399766 -3.5758302247692155 -3.2751426366697647 -4.224873806755308 1.7341295007621813 6.619763990869189 1.6796319073336619 -3.4134823072814617 -7.985713158796643 -1.3437035212781705 -7.094525955101269 -8.956713689462475 4.623867399752274 6.405823727402857 -3.918075458745968 4.979629318044859 7.9979128396461565 -2.0310612380710515 -6.570878815594721 5.985784343662727 -7.054604735316724 -3.9430530147909546 -0.4652576019618842 13.520667920483563 7.084209263661726 7.6753332854896765 1.0997608200324605 -11.427472779508376 -0.05150102662426337 -0.8076147518147168 0.46130683355376906 -6.858921713965487 -15.378525339783982 -3.6341587256581374 -2.546804824570048 4.969394596025336 7.321471836670002 -12.838501061428909 3.7433694084583893 -2.3161774313927044 1.3742426994564818 -8.75901361903508 1.6310243239352387 -5.961982045315226 -6.652876910290143 12.145955196435198 -5.285733472609349 -7.861807262584177 7.024344438056538 6.056235792652337 -2.992147751376728 -0.4157540088265145 10.497448301544699 -3.8969422396518 -4.012016181689405 4.845213831343287 -6.601788343995078 -2.204127566547629 -4.06565295791143 -15.47401642104429 -5.369556636525851 -5.237589466916602 0.4892812696508612 8.923565108555792 -17.600833194968914 -8.330083913249725 -12.056032285223878 5.197469410151147 4.373370801151766 -1.8151609297459066 16.167019204410508 -7.2967491689591935 11.915394553769545 -1.8355420405079033 -6.197623050564583 -3.124829399328538 -0.9933794279360217 -4.612326266200306 0.09058321436325778 4.518337126736829 -3.0245797777082704 10.502521925422114 -4.281650654778413 -8.59100844341737 -7.265237646238971 2.778125282679835 -4.873587712193482 7.7333205151241176 -10.718381081549479 1.1729770333174945 8.07404937811437 -1.780890950700728 -1.0817044947507313 -8.893683161332413 4.863570816080056 -7.590021912738133 -7.23771856129853 -5.112830349524547 -13.518577716980184 -3.2541911202113236 7.318306478182161 -0.49984447446822744 -12.41866257791972 5.943895010175147 11.941704794703655 -8.560208251597139 6.673924268030648 0.07802572047056017 -1.4874194556350817 8.313660515992462 7.157659231145837 -3.065944262247594 -1.790138326168121 -8.270857414440286 3.15341698364629 0.39055483609191555 -2.248603115489864 -2.151156827734994 -4.1197684520967535 0.42895285896062374 -11.063619826625075 4.973813206342415 0.13512603959811173 11.64268410809396 4.549753807071289 4.262752476663256 1.039876436130544 -18.258774587439493 -4.314172164507601 0.2701410658629575 8.91345304823582 -3.693980400648701 2.5321167244281275 9.748632160814582 -7.549213770354626 -4.928160543288267 6.216993826669588 11.322438649599107 13.783630711602996 -26.11689759106493 -8.822371117669086 -3.2433275959676355 -3.348750419884209 11.616370595834965 4.617104924161519 3.135290990195825 -14.357798893148422 5.223432542871377 -2.110211093821631 -2.876955056879845 10.335257370984165 3.5474513508577026 7.043410366079965 -3.302753520167927 14.321045502929401 8.026631185512114 -0.9991238449012299 -6.481822885067945 5.3421127152966905 6.404732425954694 -4.931143223287495 0.5514236339607232 -6.648242152143016 -1.209643676852814 15.1513150494627 18.50057747992458 -10.237899001869339 1.2889116256712017 -3.4319048504839906 2.7666323595185096 -6.985927435585832 -15.195206249945155 8.826583348565439 2.0693323723441357 -7.682669058545942 18.801365234569783 -4.6394096029283345 -2.4287998332412615 -10.765218657965288 3.0230131251794536 2.0722874748812834 -7.922934115975048 10.225924049298069 14.206160858097963 -8.445108360351801 2.6984046693688755 4.343429676458107 1.8353844317097707 -15.710839646400418 1.9608970158846621 -3.66873852391112 -3.9088765198346582 -6.684277320672233 -2.0779731186578605 -3.736734676702173 -2.0737546573424175 -14.222452895330917 3.102373312589709 8.106604460436559 -15.700786000565348 6.147494382695438 1.3128823090498922 12.18924278322836 0.18568676780619175 -8.245698723336549 8.894688543344285 24.60047640586519 -0.24225817616700282 9.602619922221127 -6.54371299541546 6.430664972510259 -2.6436148116984706 0.6047424946352877 -4.674910423684276 -11.923407833560292 -4.502712846853538 -19.789110323217148 3.333620168602508 8.570197913163366 -16.443931726479214 4.783067913782801 2.2756073607071152 12.226035481009802 -11.611832664210286 23.010412745655874 9.918095089216543 2.557750988333386 -3.817529475464431 1.0060509087912979 -3.4481302924966353 10.963026771826895 -4.103498652727966 22.62032969358511 -1.8596016532870432 -12.904346826497683 11.99555202342081 -11.021562825797968 9.840541238821675 0.8252168265652284 -11.430657634913988 -6.556494124855839 -1.6765459304374108 -7.542432373231048 0.4670149829060174 -1.343268005558513 9.60675705153929 -2.633396831608117 -20.437968446643755 -6.290075796425588 -3.3281498105705927 -3.112157400334511 2.542890801544444 -17.699895658086728 -4.884319672398041 -5.593294065022418 -1.143578720840904 0.7037657385152065 1.5660252354407431 -5.3163759239111785 -12.013248044485367 -5.514225032436707 -14.648191947737295 -2.054798653280748 -1.926464651543718 1.9370264015833962 4.152635818454768 -2.7992740950294284 -21.78958754696159 -1.467209472295462 -6.023072747404152 8.63641589443427 6.670840370980397 -0.8152038956502919 -8.93203672595198 11.094925567232085 2.759892289458543 6.833939445719623 -3.932887720342483 -10.607442642934929 11.382995116295522 -7.271052417815898 7.6283690421319665 3.9155270400255926 -1.1750306493950697 -2.050419797445107 -5.749172768656059 23.237708782550378 -1.0015774017310997 -1.1242345752078007 3.887492049035896 2.7830574066408342 1.6385207450552401 0.12068619163409144 -9.240239611627826 7.205715188705147 -2.743419257559021 -19.685616211922255 -4.797421719087942 8.50309386521183 -9.025368711046784 -5.995655046854514 -1.1747484156601353 1.3492562560475285 -13.596060957808861 -1.5377965591098541 -0.6859169684228129 13.217741683199744 -3.7139477151759284 5.962360085210369 1.062717074693926 3.164936922618749 -3.259040769223548 -5.901074836534747 0.5695144291333669 -15.470020788775392 4.768684568026374 1.5732200729651473 -5.233250587507539 -1.5506757570317404 5.420463330298548 -18.57717962918539 1.6583761559007864 11.572584824978465 0.9052644883222709 2.5143717493147713 1.0781615298358291 -10.862144132381998 4.781557536479345 6.299613679379728 4.551824556407068 -3.0116639667660956 6.789128808107533 -4.120801419730147 1.328942303388733 0.19005704325245687 -2.030805999412328 9.351232317313103 5.77210188005277 -7.442197864209606 4.820528514158614 -1.301334867297027 2.8228816293239807 -11.392891148043878 -4.7420734786231336 2.1627266771474813 8.453827519240383 2.678803161448048 -8.134873900232096 20.49263636619172 -4.052150009793479 2.021757340176274 4.862944785437672 0.4060398658699409 17.13088284924866 0.6146589965738632 12.406185948268675 -8.704213733770091 3.7669456067518343 -9.005276887910785 5.1371953400297885 -4.226339243405813 -7.064432749915464 -17.79945257817653 -3.777387121000852 2.718952832577448 -8.22274847996041 3.4701198788377408 -2.4219049237508417 5.112634885974894 -0.3072619998252327 -14.712819828261992 10.850068913484474 -0.8630339369068571 5.656521666770417 13.044042567338808 7.918749691173104 -2.4561759138726837 3.6093125787201883 0.9694898554653907 2.7936166401050078 -11.914144807203023 -4.760556916776407 10.782686713909024 12.5051939006566 5.429874278224334 -0.23830616907341362 9.824205410607913 -0.0777675293151382 -3.8033587563981284 -4.4640366076579445 -2.927270652397354 -7.5443771515276055 1.6686348829077513 -2.0076364911259037 -12.629791598008051 9.207427972472335 2.8572154262741907 8.910743404533036 -11.161189690000967 10.100946293878208 -13.180558029577659 -0.584017436183681 5.997042148320142 -6.591274792831516 -6.502904728387698 4.7644433257362255 -11.574181566680153 11.64710479049949 5.666559420048158 -4.712963331698545 -1.3771023967717546 -0.32802100985310556 3.193993118903372 -6.883629379738499 -7.210577447856622 -7.354202162312827 -4.9082003008455 0.6326448130932847 -0.3525240960226953 -2.965197651690461 12.383719566758293 9.907711726636894 16.657326139175403 6.389063929615802 0.5108642596250008 -12.628928972045033 -2.1947526074152006 0.7844733323388536 16.310598797465385 4.367535656559613 -8.309027557065482 4.629114706000745 -1.8333873010248274 5.819201513043876 0.15966861391158382 -6.111510494611722 -1.7621517088612049 15.887381182184921 6.417307622775219 -6.221219571478296 15.767415586668225 -11.150120071665091 1.1854182054194786 -9.855335397770476 8.005166031332164 -3.238960741229865 -9.537247063267378 -1.6615327416563452 1.1230133076508642 -1.3866637924977883 4.025243419711964 -5.599497032715865 3.214758528905253 -3.679182286864754 -3.4295002879329934 3.458266154428471 -3.521938085750562 -8.359553714745635 0.04268267470227749 2.411193631677667 -7.489726371936828 10.22427821951085 -4.863913058096584 0.07411300153755662 -3.1927266401603527 -7.699518447001611 -16.813141459981548 4.969691774935776 -9.280599909133594 -9.446125543034553 8.541804301177851 0.4635536059365215 1.8995275768650903 -7.890990774056546 -6.166176743469062 0.7567025590819313 -5.004465345245153 -7.017829706576652 -5.417657791960459 -3.8178136347402076 -7.360231957535089 12.620665489156734 4.385331209399153 -3.2033806339328597 -1.9632446121871299 0.385573829153086 0.9475688784591261 -7.54293361403858 1.2399750718307312 3.374148373155009 5.923925041690003 -8.402702015156807 -11.888775943138361 -0.4795040389499904 -3.502809720898677 2.987100209651027 10.39600394876794 -8.901558454596184 -4.374755040317295 3.7913057012625937 2.606754961896078 3.036314851562074 -2.5912302667367926 0.8958530877153723 -7.449925625079784
3.5552831624259733 -7.401530949706596 8.145260368849959 -7.673821391208355 -0.21478172996656852 7.196294648294854 -2.899929446354366 -7.853178633140199 -8.011022760858044 7.840280690753325 0.589431010139182 -3.7841986387426423 -9.152458383166628 -3.2110158322516167 5.6669445802692815 14.996584454334734 2.554112368618047 -0.8851176730284915 3.690610530457214 -16.482265177516044 7.37385199539221 3.689000076659039 8.748155850733175 13.608788134464737 2.8213246525384097 5.368648101757821 0.22849443044303408 4.654138032399766 -3.5758302247692155 -3.3925059521466476 -4.224873806755308 1.390731542293084 5.9632540039697215 1.6796319073336619 -3.187013259821795 -7.508024390375258 -1.9538669522378205 -7.094525955101269 -8.41515744617125 4.774887936392268 6.405823727402857 -2.1919725181267005 8.515749848898837 8.521586631587224 -2.0310612380710515 -5.963381412110088 5.209435086283799 -6.72233263943951 -3.9430530147909546 -0.4652576019618842 13.3740422857895 8.49401029115755 7.44002340888894 1.0997608200324605 -11.427472779508376 -0.4263102606263507 -0.8076147518147168 0.28137126758912456 -7.030628576892463 -14.646895692480001 -3.6341587256581374 -2.546804824570048 4.163306584013279 8.176405747706585 -13.271413351704101 3.7433694084583893 -1.2759673127672033 1.3742426994564818 -7.613561728820052 2.2727868301019845 -5.961982045315226 -6.886189456482367 12.145955196435198 -5.285733472609349 -3.6098404415647556 7.333227809462195 4.749315198585045 -2.008819703041959 0.7566903631820403 10.046379309868913 -4.29785258287105 -4.012016181689405 4.845213831343287 -6.330460215219437 -0.37455235416345745 -4.06565295791143 -15.261733989334934 -4.130831281708598 -5.237589466916602 0.3313940275494881 8.923565108555792 -17.14156149019283 -6.8555461626708905 -12.587662478073408 2.5510594618367217 4.108325576294084 -1.8151609297459066 16.167019204410508 -7.2967491689591935 12.828710004239756 -1.8355420405079033 -6.197623050564583 -3.2746088481778286 0.1939829397603674 -6.169325685070205 0.5952068092682655 4.518337126736829 -2.2967286078691442 10.502521925422114 -3.4570755582084365 -8.741094054869318 -7.0448777998430145 2.778125282679835 -7.263888546325437 6.357269874585408 -12.156888094632318 -0.5687060623224289 7.975402828279794 -1.780890950700728 -2.0370601669025694 -8.893683161332413 4.306743849718547 -7.590021912738133 -7.561413544831785 -6.2789841339931955 -13.518577716980184 -3.2541911202113236 7.318306478182161 -1.1951384305005492 -11.910754234084045 5.943895010175147 10.370755361726609 -8.560208251597139 6.197247247306099 0.7139683834331794 -1.4874194556350817 5.07834025677525 7.157659231145837 -3.1574693371022007 -1.8274257132183478 -8.799971570160453 3.15341698364629 0.39055483609191555 -2.3394567331920078 -2.151156827734994 -5.540520443714934 0.42895285896062374 -11.063619826625075 4.76545122665875 0.13512603959811173 9.981776511677133 4.298507543807662 4.262752476663256 0.13598604116560753 -19.229364122571198 -3.2654082976663856 2.130820635105738 9.24395864730059 -3.693980400648701 1.2639380430878682 10.701754306188457 -7.549213770354626 -4.689108045784877 8.430047661820991 11.322438649599107 15.24453149696719 -27.098240627184406 -8.292538057408045 -3.030192678927684 -3.348750419884209 10.44994564526089 4.258804890207922 3.368527705592238 -11.66007318593655 7.390123237181635 -2.110211093821631 -3.2373605176303553 8.75667514705302 6.554595449244157 7.043410366079965 -3.266644576233267 13.006088060452049 8.037168271511952 -0.9991238449012299 -6.481822885067945 4.990546016397602 5.542279923463731 -4.931143223287495 0.8691833254558365 -6.648242152143016 -1.209643676852814 15.1513150494627 18.095429889387386 -10.223579231145719 2.299463598177462 -3.4319048504839906 -0.23747676633892045 -6.985927435585832 -15.195206249945155 7.770486930345469 2.0693323723441357 -6.7635083232177795 17.47712260079927 -4.424915356775669 -2.4287998332412615 -10.241975717444353 3.0230131251794536 2.110868570775589 -7.39487372713502 9.429478603150056 11.48560993621298 -8.487430349616801 2.6984046693688755 3.98857549669521 3.5255201648187198 -17.015298992640766 1.9608970158846621 -3.66873852391112 -3.9088765198346582 -6.03285338433378 -2.9865525920962224 -3.7054018558747126 -1.7690922308241968 -14.222452895330917 3.536846773584202 7.851643016010352 -15.525882046442671 7.664460598019664 1.2381508082153962 12.669193307986303 -0.7410383305157431 -8.245698723336549 9.058078428373378 24.60047640586519 -0.9703435899537639 8.519499408520389 -5.500299109914125 9.052822378849045 -2.6436148116984706 1.188607918326983 -5.126981788980135 -11.923407833560292 -5.325839747780716 -21.894868180825647 3.333620168602508 6.581682478121612 -18.466232979774187 4.783067913782801 2.596537999960069 11.373873949002862 -10.761846756007692 22.248746319152243 10.606749145257721 4.04716698699792 -3.6281705811563354 1.7029164260360043 -3.049855872978974 10.963026771826895 -2.9208939762144843 22.62032969358511 -2.300485798033566 -12.904346826497683 10.996369654668465 -11.021562825797968 9.230024270399378 0.8252168265652284 -11.225922307377761 -6.556494124855839 -1.6765459304374108 -6.781224527028269 0.4670149829060174 -1.1561273026267962 9.60675705153929 -1.0194051953504253 -18.91457252703392 -6.679151230490634 -3.2420354072672413 -2.117197320861003 2.6787317492465297 -17.699895658086728 -3.851178694938876 -6.54109228092676 1.5266855084672042 1.1876979311295526 0.6320354944138088 -5.573780241493612 -12.013248044485367 -5.514225032436707 -14.746408959761125 -2.054798653280748 -1.926464651543718 1.9370264015833962 4.152635818454768 -1.6998363527475921 -22.620674823091676 -0.021280039049496047 -6.023072747404152 8.253813208599798 6.670840370980397 -0.8152038956502919 -9.26265665563469 10.927768393790515 2.759892289458543 6.451677527337744 -3.932887720342483 -12.49578928743338 9.994636076990655 -7.271052417815898 7.799399834776005 1.0164042508330815 -0.29634260593333916 -2.647164359051991 -5.749172768656059 23.237708782550378 -1.0015774017310997 -0.9400145854972516 3.524585140593251 3.2243742346404236 2.6027667811741955 0.12068619163409144 -9.8512754555169 7.205715188705147 -2.743419257559021 -19.685616211922255 -5.15376164170682 9.181550025914365 -8.218393330808754 -5.995655046854514 -1.3937776002314557 1.3492562560475285 -13.030765475069432 -1.145384229276838 -0.7520705620143711 10.904013804881243 -3.139690725679039 5.3806158860560425 0.7523548033960621 3.164936922618749 -3.259040769223548 -7.631988214574266 0.5695144291333669 -17.034966822146394 4.768684568026374 2.525292123387613 -5.233250587507539 -1.5506757570317404 2.7624134108915297 -19.205469314530493 0.9631946651831338 11.027149920046222 1.0122833243653848 2.5143717493147713 1.0781615298358291 -10.862144132381998 4.781557536479345 7.029271961192349 4.244416536710471 -3.0116639667660956 6.789128808107533 -5.5703899731504185 1.328942303388733 0.19005704325245687 -2.030805999412328 9.351232317313103 5.968406511947451 -7.442197864209606 4.178298668229057 -1.301334867297027 1.3057736509011773 -11.340616491663873 -4.7420734786231336 1.8492056219498605 10.388763602906215 2.678803161448048 -8.134873900232096 19.83103705541144 -4.458062292193459 3.179661965794269 4.365656671243164 1.035193886890025 16.785357566561046 1.3751402502140126 12.406185948268675 -7.7047758628142295 4.05792939494582 -7.601996232272544 5.1371953400297885 -4.067116650310001 -7.7635009547971725 -17.79945257817653 -3.312516988219458 2.12659385446598 -8.878976330885651 2.5337042295637664 -2.4219049237508417 5.706661473403251 -0.3072619998252327 -14.712819828261992 13.223171281526938 -0.8630339369068571 5.656521666770417 13.044042567338808 7.918749691173104 -2.4561759138726837 0.4459015060225733 0.6930482919501171 1.5863630379319955 -9.06238489104166 -4.760556916776407 10.782686713909024 12.957226666075229 5.058904206840877 -0.5624193026564193 8.100570970464288 -2.4179122477113024 -5.69467065583609 -4.4640366076579445 -4.005949920971429 -7.5443771515276055 0.43944184446498535 -2.0076364911259037 -13.247943947000946 9.207427972472335 2.8572154262741907 8.910743404533036 -11.229968293329819 10.868249402800814 -13.180558029577659 -1.4218919770447505 4.756234326423954 -5.816591820372307 -6.502904728387698 4.7644433257362255 -12.094554467622025 11.209053685995233 5.666559420048158 -5.345751628935519 -1.3771023967717546 -0.7840369266348451 3.193993118903372 -6.883629379738499 -7.210577447856622 -8.966699618766837 -4.9082003008455 0.42723624722418163 -0.3525240960226953 -3.359564792480179 12.415222785571263 9.907711726636894 16.841309762893818 7.394527898190486 0.5108642596250008 -13.638721101972097 -2.54536248728517 0.7844733323388536 16.310598797465385 6.0658468316720295 -7.772365258864997 4.15886074210066 -1.8333873010248274 5.359601900200473 0.9018045420594634 -6.355202690669417 -1.7621517088612049 15.664059063366576 6.305669110843053 -6.221219571478296 15.976781258868915 -11.150120071665091 1.1854182054194786 -10.082693313236755 8.005166031332164 -4.720796473601485 -9.238272278420325 -2.4021919614226745 -1.0166642732196247 -1.5206459347380503 3.4750243273325356 -5.599497032715865 -2.0427902979228465 -5.092131073974038 -5.015403303181199 3.8729130613954585 -3.521938085750562 -9.292672231443241 -0.9159410384646295 2.411193631677667 -7.489726371936828 10.694709834891553 -5.580621689101072 0.9626101410943293 -4.334237347707999 -8.113764023326254 -15.717853012509313 4.969691774935776 -9.59434821731283 -9.446125543034553 8.830173797003356 0.23786117384435587 1.4595341713027388 -7.890990774056546 -5.02768414883776 0.8205782813751659 -3.4103620684055564 -7.5569563157821635 -4.325555773504596 -3.845231995444858 -7.055141469167878 12.620665489156734 5.148438212960612 -3.381959312490216 -1.7993341262579317 -1.9784064018404095 0.9475688784591261 -7.54293361403858 -0.5991781530374568 2.9409277829247675 5.4645290476418715 -7.596882072181703 -11.888775943138361 -0.2814056718769721 -3.4971167241415317 3.66274576997338 10.39600394876794 -8.949192254069624 -4.495882260974845 2.886805760669863 2.610359287996567 4.3845152550807605 -2.5912302667367926 1.2847966589560014 -7.449925625079784
2.7522141694996014 -5.999563838338026 8.145260368849959 -7.430901064568019 -0.21478172996656852 7.2878840950847055 -3.5943981209435014 -7.853178633140199 -8.879975156732687 7.506192244956452 1.4354187826266285 -3.7841986387426423 -9.152458383166628 -3.2110158322516167 6.578840287194885 15.557222647625403 2.6311308214558067 -0.8851176730284915 1.2103724106172846 -15.444789679754837 7.37385199539221 3.689000076659039 8.748155850733175 13.356251849165828 1.9797995921652274 6.717083177221576 0.22849443044303408 4.654138032399766 -3.5758302247692155 -3.2244058569316922 -4.224873806755308 1.7341295007621813 6.385289515273492 1.6796319073336619 -3.4134823072814617 -7.881913596599942 -0.10062425986054446 -7.094525955101269 -8.696728130612119 4.623867399752274 6.405823727402857 -3.5095063836785143 8.515749848898837 8.521586631587224 -2.0310612380710515 -6.570878815594721 6.673364161844916 -7.054604735316724 -3.9430530147909546 -0.4652576019618842 13.520667920483563 7.833639896554468 7.6753332854896765 1.4899903635036758 -11.427472779508376 -0.8898926547680764 -0.8076147518147168 0.46130683355376906 -7.030628576892463 -14.88953523663341 -3.6341587256581374 -2.636587060209579 4.969394596025336 5.920858686961154 -13.271413351704101 3.7433694084583893 -2.3161774313927044 0.0874288239107821 -8.90010608138866 2.2727868301019845 -5.961982045315226 -6.886189456482367 12.145955196435198 -5.285733472609349 -5.645993510942529 7.024344438056538 4.749315198585045 -2.992147751376728 -0.4157540088265145 10.497448301544699 -4.737130864155226 -4.554361949082471 4.845213831343287 -6.601788343995078 -1.0757779040165079 -5.123131810269824 -15.47401642104429 -5.369556636525851 -5.237589466916602 0.3313940275494881 8.923565108555792 -17.600833194968914 -6.8555461626708905 -12.056032285223878 2.5510594618367217 4.108325576294084 -1.8151609297459066 16.167019204410508 -7.2967491689591935 11.834956996374189 -1.8355420405079033 -6.197623050564583 -3.8669408343724925 -0.9933794279360217 -2.484483829441295 0.09058321436325778 4.960622477627285 -3.2529452764433815 8.301088064812957 -3.4570755582084365 -8.59100844341737 -8.531948857113374 4.146766245263834 -4.873587712193482 6.126609620249833 -12.758286421276898 -0.16009440052031287 7.975402828279794 -0.9380353247716655 -0.5483126473556295 -8.893683161332413 6.158662959756437 -7.590021912738133 -7.23771856129853 -5.298364449272799 -13.518577716980184 -3.2541911202113236 7.318306478182161 -1.183089473218649 -12.41866257791972 6.278358558049176 10.24218193358174 -8.560208251597139 6.673924268030648 0.07802572047056017 -1.4874194556350817 5.770799365362929 7.157659231145837 -3.1574693371022007 0.4400696288216003 -8.270857414440286 3.15341698364629 0.39055483609191555 -2.2738728736377514 -2.151156827734994 -5.540520443714934 0.42895285896062374 -11.063619826625075 4.76545122665875 0.13512603959811173 12.16836715215683 4.549753807071289 4.262752476663256 0.13598604116560753 -17.130369000324116 -4.314172164507601 0.2701410658629575 7.963212823841783 -4.733093457216688 3.36833219237359 10.701754306188457 -7.549213770354626 -5.560543830578254 6.216993826669588 11.322438649599107 16.42787058765474 -26.858585142432666 -8.822371117669086 -4.103640001114734 -3.348750419884209 11.616370595834965 4.258804890207922 3.0417054496204066 -11.013104536845628 5.223432542871377 -2.110211093821631 -2.820252483352361 9.886741758653015 2.092252646820314 7.043410366079965 -3.302753520167927 13.21086861991413 8.037168271511952 -0.9991238449012299 -4.769099456509064 5.3421127152966905 6.404732425954694 -4.09977032161518 0.8691833254558365 -6.648242152143016 -1.209643676852814 15.1513150494627 18.50057747992458 -10.223579231145719 1.2889116256712017 -3.4319048504839906 2.7666323595185096 -6.985927435585832 -14.367504484695282 7.770486930345469 2.0693323723441357 -6.421092677599793 18.801365234569783 -4.6394096029283345 -2.4287998332412615 -10.241975717444353 4.9395712149430455 2.0722874748812834 -7.922934115975048 9.87020785529861 14.206160858097963 -8.37633347497308 2.6984046693688755 4.343429676458107 1.8353844317097707 -15.710839646400418 1.3563461504845309 -3.969777701049426 -2.6976698160972408 -7.261807005887681 -2.0779731186578605 -3.207873460352575 -1.7690922308241968 -14.222452895330917 3.102373312589709 8.626259888821147 -15.700786000565348 7.664460598019664 1.2055551134495957 11.671174602182358 0.6097875669807311 -8.245698723336549 8.894688543344285 24.60047640586519 -0.9703435899537639 8.873082294277502 -5.500299109914125 7.582251753962821 -2.6436148116984706 1.188607918326983 -5.126981788980135 -12.172269620220478 -5.325839747780716 -21.894868180825647 3.333620168602508 6.581682478121612 -16.443931726479214 4.783067913782801 3.222849919065223 12.226035481009802 -11.611832664210286 23.010412745655874 9.959312218508892 4.04716698699792 -3.817529475464431 0.9960396238552218 -3.4481302924966353 10.963026771826895 -2.9208939762144843 22.62032969358511 -1.8596016532870432 -12.904346826497683 11.99555202342081 -11.021562825797968 9.840541238821675 0.688976413678306 -11.430657634913988 -6.556494124855839 -2.7397456843920667 -6.781224527028269 0.0206478975861209 -1.343268005558513 9.60675705153929 -1.0194051953504253 -20.437968446643755 -7.354735888440162 -3.2420354072672413 -2.117197320861003 3.0295381733561304 -17.699895658086728 -4.512904814865974 -5.593294065022418 1.5266855084672042 1.3339385162400414 1.5660252354407431 -5.3163759239111785 -12.013248044485367 -5.514225032436707 -14.648191947737295 -2.054798653280748 -1.926464651543718 1.9370264015833962 4.152635818454768 -2.50368782691967 -23.352054893536625 -1.467209472295462 -6.023072747404152 8.253813208599798 6.670840370980397 -0.8152038956502919 -9.553608386732412 10.927768393790515 2.0282791083121987 6.833939445719623 -3.932887720342483 -11.690718962106297 11.382995116295522 -7.271052417815898 6.737601620856351 1.0164042508330815 -1.1750306493950697 -2.647164359051991 -5.749172768656059 23.237708782550378 -1.0955866952203062 -1.1242345752078007 3.524585140593251 2.7830574066408342 2.225780196586131 0.12068619163409144 -9.8512754555169 7.4880769002680285 -3.5831175025083213 -19.685616211922255 -4.797421719087942 8.813044596497246 -7.145474189993531 -5.089818566681689 -1.3615710237715142 1.4535743401667498 -13.78430732036056 -1.5377965591098541 -0.7520705620143711 12.528089834626417 -1.7621387178400738 5.962360085210369 1.062717074693926 3.594232946079552 -3.6238879866803613 -8.8671837829666 0.5695144291333669 -15.470020788775392 4.768684568026374 1.5732200729651473 -5.233250587507539 -1.5506757570317404 2.8548858144573894 -18.197368554092982 1.6583761559007864 11.572584824978465 0.9052644883222709 2.5143717493147713 1.0781615298358291 -10.862144132381998 4.781557536479345 6.299613679379728 4.551824556407068 -3.0116639667660956 7.173787269519449 -4.120801419730147 1.328942303388733 0.19005704325245687 -3.5139247482797686 10.524081230659323 5.77210188005277 -7.111305388746359 4.820528514158614 -1.301334867297027 2.8228816293239807 -10.537404264189515 -4.7420734786231336 2.1627266771474813 10.388763602906215 2.678803161448048 -8.134873900232096 18.747553368220522 -4.458062292193459 2.4465385563602524 4.862944785437672 -0.8961435981612488 16.785357566561046 -1.2617272597634657 12.406185948268675 -8.704213733770091 4.177756756513708 -8.60866786015019 5.1371953400297885 -4.067116650310001 -7.064432749915464 -17.79945257817653 -3.777387121000852 2.718952832577448 -9.002814869296552 2.5337042295637664 -2.4219049237508417 5.112634885974894 -0.3072619998252327 -14.712819828261992 13.223171281526938 -0.8571129981504748 5.656521666770417 12.434236360325839 7.918749691173104 -2.4561759138726837 3.6093125787201883 0.6930482919501171 2.6691585437823706 -11.914144807203023 -4.760556916776407 10.782686713909024 12.957226666075229 5.058904206840877 -0.6790644889913559 8.100570970464288 -0.0777675293151382 -5.69467065583609 -4.4640366076579445 -3.6302601582960183 -7.5443771515276055 0.43944184446498535 -2.0076364911259037 -12.629791598008051 9.207427972472335 2.8572154262741907 8.910743404533036 -11.229968293329819 11.512778350640401 -13.180558029577659 -1.4218919770447505 5.997042148320142 -6.366775671890838 -5.973846889710622 5.55157146855134 -11.574181566680153 11.64710479049949 5.666559420048158 -4.712963331698545 -1.303030204075167 -0.7840369266348451 3.193993118903372 -6.871696167091624 -7.210577447856622 -7.354202162312827 -4.9082003008455 0.42723624722418163 -0.3525240960226953 -3.359564792480179 12.383719566758293 9.907711726636894 16.657326139175403 7.394527898190486 0.5108642596250008 -12.628928972045033 -1.8256300017456153 0.7844733323388536 16.310598797465385 6.719380697235196 -8.309027557065482 3.1278089115625716 -1.8333873010248274 6.3245831542251825 -2.216279125039127 -6.111510494611722 -0.9458098966762798 15.887381182184921 7.796333726077426 -6.221219571478296 14.602613818426882 -11.150120071665091 1.1854182054194786 -10.082693313236755 8.005166031332164 -3.238960741229865 -10.166919303828138 -1.470015606390551 1.1230133076508642 -1.3866637924977883 4.025243419711964 -6.297687653488762 3.214758528905253 -3.679182286864754 -3.4295002879329934 3.458266154428471 -3.521938085750562 -9.292672231443241 -0.9252542930016405 2.411193631677667 -7.488465755641199 10.22427821951085 -5.580621689101072 0.07411300153755662 -4.090412924216179 -8.113764023326254 -15.63878035667199 4.6802767591140935 -9.59434821731283 -9.446125543034553 8.541804301177851 0.4635536059365215 3.2778617442167546 -7.890990774056546 -6.166176743469062 0.7567025590819313 -3.4691127411880767 -7.017829706576652 -4.325555773504596 -3.845231995444858 -7.055141469167878 12.620665489156734 5.710144461010217 -3.2033806339328597 -1.9632446121871299 -0.11833095933996951 0.9475688784591261 -6.051182961085626 1.2399750718307312 3.374148373155009 5.4645290476418715 -7.681813905605937 -11.888775943138361 -0.4795040389499904 -3.296848583567952 3.66274576997338 10.39600394876794 -8.901558454596184 -4.374755040317295 3.7913057012625937 2.606754961896078 4.3845152550807605 -2.5912302667367926 0.8958530877153723 -7.449925625079784
3.4646961324361785 -6.641414080561459 8.446480914132957 -7.109039950431816 -0.21478172996656852 7.193359526948048 -3.320798305265463 -7.853178633140199 -8.128781252070373 7.840280690753325 1.4354187826266285 -3.7841986387426423 -9.152458383166628 -3.2110158322516167 6.5644924278528975 15.557222647625403 1.965051303747985 -0.8851176730284915 2.187902818264874 -16.586094392636998 7.0670458833514935 3.689000076659039 7.863632409734604 13.356251849165828 1.9797995921652274 6.256155309489624 0.1786304672598864 4.654138032399766 -3.5758302247692155 -3.2751426366697647 -4.224873806755308 1.7341295007621813 6.619763990869189 1.6796319073336619 -3.4134823072814617 -7.985713158796643 -1.3437035212781705 -7.094525955101269 -8.956713689462475 4.623867399752274 6.405823727402857 -3.918075458745968 4.979629318044859 7.9979128396461565 -2.0310612380710515 -6.570878815594721 5.985784343662727 -7.054604735316724 -3.9430530147909546 -0.4652576019618842 13.520667920483563 7.084209263661726 7.6753332854896765 1.0997608200324605 -11.427472779508376 -0.05150102662426337 -0.8076147518147168 0.46130683355376906 -6.858921713965487 -15.378525339783982 -4.837256051750062 -2.546804824570048 4.969394596025336 7.321471836670002 -12.809344471239765 3.7433694084583893 -2.3161774313927044 1.3742426994564818 -8.75901361903508 1.6310243239352387 -5.961982045315226 -6.652876910290143 12.145955196435198 -5.285733472609349 -7.861807262584177 7.024344438056538 6.056235792652337 -2.992147751376728 -0.4157540088265145 10.497448301544699 -3.8969422396518 -4.012016181689405 4.845213831343287 -6.601788343995078 -2.204127566547629 -4.06565295791143 -15.47401642104429 -5.369556636525851 -5.237589466916602 0.4892812696508612 8.923565108555792 -17.600833194968914 -6.8555461626708905 -12.056032285223878 5.197469410151147 4.373370801151766 -1.8151609297459066 16.167019204410508 -7.2967491689591935 11.915394553769545 -1.8355420405079033 -6.197623050564583 -3.124829399328538 -0.9933794279360217 -4.612326266200306 0.09058321436325778 4.518337126736829 -3.0245797777082704 10.502521925422114 -4.281650654778413 -8.59100844341737 -7.265237646238971 2.778125282679835 -4.873587712193482 7.7333205151241176 -10.718381081549479 1.1729770333174945 8.07404937811437 -1.780890950700728 -1.0817044947507313 -8.893683161332413 4.863570816080056 -7.590021912738133 -7.23771856129853 -6.252954371214344 -13.518577716980184 -3.2541911202113236 7.318306478182161 -0.49984447446822744 -12.41866257791972 5.943895010175147 11.941704794703655 -8.560208251597139 6.217487225399827 0.07802572047056017 -1.4874194556350817 8.313660515992462 7.654449910725512 -3.6314165826175846 -1.790138326168121 -8.270857414440286 3.15341698364629 0.39055483609191555 -2.248603115489864 -2.151156827734994 -4.1197684520967535 0.42895285896062374 -11.063619826625075 4.973813206342415 0.13512603959811173 11.64268410809396 4.549753807071289 4.262752476663256 1.039876436130544 -18.258774587439493 -4.314172164507601 0.14909088852456626 8.91345304823582 -3.693980400648701 2.5321167244281275 9.748632160814582 -5.544197443371347 -4.928160543288267 6.216993826669588 11.322438649599107 13.783630711602996 -26.11689759106493 -8.822371117669086 -3.2433275959676355 -3.348750419884209 11.616370595834965 4.617104924161519 3.135290990195825 -14.357798893148422 6.1302993773204575 -2.110211093821631 -2.876955056879845 10.335257370984165 3.5474513508577026 4.464584021979098 -3.302753520167927 14.321045502929401 8.026631185512114 -0.9991238449012299 -6.481822885067945 5.3421127152966905 6.404732425954694 -4.931143223287495 0.5514236339607232 -6.648242152143016 -1.209643676852814 15.1513150494627 18.50057747992458 -10.808692804184808 1.3287876904335174 -3.4319048504839906 2.7666323595185096 -6.985927435585832 -15.195206249945155 8.826583348565439 2.0693323723441357 -7.682669058545942 18.801365234569783 -4.6394096029283345 -2.4287998332412615 -10.765218657965288 3.0230131251794536 2.0722874748812834 -7.922934115975048 9.429478603150056 14.206160858097963 -8.445108360351801 2.6984046693688755 4.343429676458107 2.360311864224907 -15.710839646400418 1.9608970158846621 -3.66873852391112 -3.9088765198346582 -6.684277320672233 -2.0779731186578605 -3.736734676702173 -2.0737546573424175 -14.222452895330917 3.102373312589709 8.106604460436559 -15.700786000565348 6.032158262325126 1.3128823090498922 12.18924278322836 0.18568676780619175 -8.245698723336549 8.894688543344285 24.60047640586519 0.5399118527410361 9.602619922221127 -6.54371299541546 6.430664972510259 -2.6436148116984706 0.6047424946352877 -4.674910423684276 -11.923407833560292 -4.502712846853538 -19.789110323217148 3.333620168602508 8.570197913163366 -16.443931726479214 4.783067913782801 2.2756073607071152 12.226035481009802 -11.611832664210286 22.538957528067463 9.918095089216543 2.557750988333386 -3.817529475464431 1.0060509087912979 -3.4481302924966353 10.963026771826895 -4.103498652727966 23.536523165226615 -1.8596016532870432 -12.904346826497683 11.99555202342081 -11.021562825797968 9.840541238821675 0.8252168265652284 -11.430657634913988 -6.556494124855839 -1.6765459304374108 -7.542432373231048 0.4670149829060174 -1.343268005558513 9.60675705153929 -1.068427098300491 -20.437968446643755 -6.290075796425588 -3.3281498105705927 -3.112157400334511 2.542890801544444 -17.699895658086728 -4.884319672398041 -5.593294065022418 -1.143578720840904 0.7037657385152065 1.5660252354407431 -5.3163759239111785 -12.013248044485367 -5.514225032436707 -14.648191947737295 -2.054798653280748 -1.926464651543718 1.9370264015833962 4.152635818454768 -2.7992740950294284 -21.78958754696159 -1.467209472295462 -6.023072747404152 8.365311994036741 6.670840370980397 -0.8152038956502919 -8.93203672595198 11.094925567232085 2.759892289458543 6.833939445719623 -3.932887720342483 -10.607442642934929 11.382995116295522 -7.271052417815898 7.16201878269508 3.9155270400255926 -1.1750306493950697 -2.050419797445107 -5.749172768656059 23.237708782550378 -1.0015774017310997 -1.1242345752078007 3.887492049035896 2.7830574066408342 1.6385207450552401 0.12068619163409144 -9.240239611627826 7.205715188705147 -2.743419257559021 -19.685616211922255 -4.797421719087942 9.181550025914365 -9.025368711046784 -5.995655046854514 -1.1747484156601353 1.3492562560475285 -13.596060957808861 -1.5377965591098541 -0.6859169684228129 13.217741683199744 -3.7139477151759284 5.962360085210369 0.7523548033960621 3.164936922618749 -3.259040769223548 -5.901074836534747 0.04371023889636061 -15.470020788775392 4.768684568026374 1.5732200729651473 -5.233250587507539 -1.5506757570317404 5.420463330298548 -18.57717962918539 1.6583761559007864 11.572584824978465 0.9052644883222709 2.314079355988689 1.0781615298358291 -10.862144132381998 4.781557536479345 6.299613679379728 4.792753637665123 -3.5363485303170448 6.789128808107533 -4.120801419730147 1.328942303388733 0.19005704325245687 -2.030805999412328 9.351232317313103 5.77210188005277 -7.442197864209606 4.820528514158614 -1.301334867297027 2.8228816293239807 -11.392891148043878 -4.7420734786231336 2.1627266771474813 8.453827519240383 2.678803161448048 -8.134873900232096 20.49263636619172 -4.052150009793479 2.021757340176274 4.862944785437672 0.4060398658699409 17.13088284924866 0.6146589965738632 12.406185948268675 -8.704213733770091 3.7669456067518343 -7.196219597175078 5.1371953400297885 -4.226339243405813 -7.064432749915464 -17.79945257817653 -3.777387121000852 2.718952832577448 -8.22274847996041 2.5337042295637664 -2.4219049237508417 5.112634885974894 -0.3072619998252327 -14.712819828261992 10.850068913484474 -0.8630339369068571 5.656521666770417 13.044042567338808 7.918749691173104 -2.4561759138726837 3.6093125787201883 0.9694898554653907 2.7936166401050078 -11.914144807203023 -4.760556916776407 10.782686713909024 12.5051939006566 5.429874278224334 -0.23830616907341362 8.835995529074523 -0.0777675293151382 -3.8033587563981284 -4.4640366076579445 -2.927270652397354 -7.5443771515276055 1.6686348829077513 -2.0076364911259037 -12.629791598008051 9.207427972472335 2.8572154262741907 8.910743404533036 -11.161189690000967 10.100946293878208 -13.180558029577659 -0.584017436183681 5.997042148320142 -6.591274792831516 -6.502904728387698 4.7644433257362255 -11.574181566680153 11.64710479049949 5.666559420048158 -4.712963331698545 -1.3771023967717546 -0.32802100985310556 3.193993118903372 -6.883629379738499 -7.210577447856622 -8.966699618766837 -4.9082003008455 0.6326448130932847 -0.3525240960226953 -2.965197651690461 12.383719566758293 9.907711726636894 16.657326139175403 6.389063929615802 0.5108642596250008 -12.628928972045033 -2.1947526074152006 -0.16091089629978483 16.310598797465385 4.367535656559613 -8.309027557065482 4.15886074210066 -1.8333873010248274 5.819201513043876 0.15966861391158382 -6.111510494611722 -1.7621517088612049 15.887381182184921 6.417307622775219 -6.221219571478296 15.767415586668225 -11.150120071665091 1.1854182054194786 -9.855335397770476 8.005166031332164 -3.238960741229865 -9.238272278420325 -1.6615327416563452 1.1230133076508642 -1.3866637924977883 4.025243419711964 -5.599497032715865 3.214758528905253 -3.679182286864754 -3.4295002879329934 3.458266154428471 -3.521938085750562 -8.359553714745635 0.04268267470227749 2.411193631677667 -7.489726371936828 10.22427821951085 -4.863913058096584 0.07411300153755662 -3.1927266401603527 -8.113764023326254 -16.813141459981548 4.969691774935776 -9.280599909133594 -9.446125543034553 8.541804301177851 0.4635536059365215 1.8995275768650903 -7.890990774056546 -6.166176743469062 0.7567025590819313 -5.004465345245153 -7.017829706576652 -4.325555773504596 -3.8178136347402076 -7.360231957535089 12.620665489156734 5.710144461010217 -3.2033806339328597 -1.9632446121871299 0.385573829153086 0.9475688784591261 -7.54293361403858 1.2399750718307312 3.374148373155009 5.923925041690003 -8.402702015156807 -11.888775943138361 -0.4795040389499904 -3.502809720898677 2.987100209651027 10.39600394876794 -8.901558454596184 -4.374755040317295 2.1810548639083875 2.606754961896078 3.036314851562074 -2.5912302667367926 0.8958530877153723 -7.449925625079784
3.4646961324361785 -5.999563838338026 8.446480914132957 -7.430901064568019 -0.21478172996656852 7.193359526948048 -3.320798305265463 -7.853178633140199 -8.549489495914898 7.840280690753325 1.4354187826266285 -3.7841986387426423 -9.152458383166628 -3.2110158322516167 6.5644924278528975 15.557222647625403 1.965051303747985 -0.8851176730284915 2.187902818264874 -16.586094392636998 7.0670458833514935 3.689000076659039 7.863632409734604 13.356251849165828 1.9797995921652274 6.256155309489624 0.1786304672598864 4.654138032399766 -3.5758302247692155 -3.2751426366697647 -4.224873806755308 1.7341295007621813 6.619763990869189 1.6796319073336619 -3.4134823072814617 -7.985713158796643 -1.3437035212781705 -7.094525955101269 -8.41515744617125 4.623867399752274 6.405823727402857 -3.0397220790956903 4.979629318044859 7.9979128396461565 -2.0310612380710515 -6.570878815594721 5.985784343662727 -7.054604735316724 -3.9430530147909546 -0.4652576019618842 13.520667920483563 7.084209263661726 7.6753332854896765 1.0997608200324605 -11.427472779508376 -0.05150102662426337 -0.8076147518147168 0.46130683355376906 -6.858921713965487 -15.378525339783982 -3.6341587256581374 -2.546804824570048 4.969394596025336 7.321471836670002 -12.809344471239765 3.7433694084583893 -2.3161774313927044 1.3742426994564818 -8.90010608138866 1.6310243239352387 -5.961982045315226 -6.652876910290143 11.871780980872014 -5.285733472609349 -7.861807262584177 7.024344438056538 6.056235792652337 -2.992147751376728 -0.4157540088265145 10.497448301544699 -4.737130864155226 -4.012016181689405 4.845213831343287 -6.601788343995078 -2.204127566547629 -4.06565295791143 -15.47401642104429 -5.369556636525851 -5.237589466916602 0.4892812696508612 8.923565108555792 -17.600833194968914 -6.8555461626708905 -12.056032285223878 5.197469410151147 4.108325576294084 -1.8151609297459066 16.167019204410508 -7.2967491689591935 11.915394553769545 -2.381325062067208 -6.197623050564583 -3.124829399328538 -0.9933794279360217 -4.612326266200306 0.09058321436325778 4.518337126736829 -3.0245797777082704 10.502521925422114 -4.281650654778413 -8.59100844341737 -7.265237646238971 2.778125282679835 -4.873587712193482 7.7333205151241176 -13.044631117117822 -0.16009440052031287 8.07404937811437 -1.780890950700728 -1.0817044947507313 -8.893683161332413 4.863570816080056 -7.590021912738133 -7.23771856129853 -6.252954371214344 -13.518577716980184 -3.2541911202113236 7.318306478182161 -1.1951384305005492 -12.41866257791972 5.943895010175147 11.941704794703655 -8.560208251597139 6.217487225399827 0.07802572047056017 -1.4874194556350817 8.313660515992462 7.654449910725512 -3.6314165826175846 -1.790138326168121 -8.270857414440286 3.15341698364629 0.39055483609191555 -2.248603115489864 -2.151156827734994 -4.1197684520967535 0.42895285896062374 -11.063619826625075 4.973813206342415 0.13512603959811173 11.64268410809396 4.549753807071289 4.262752476663256 0.13598604116560753 -18.258774587439493 -4.314172164507601 0.14909088852456626 8.91345304823582 -3.693980400648701 3.36833219237359 10.701754306188457 -7.549213770354626 -4.928160543288267 6.216993826669588 11.322438649599107 13.783630711602996 -26.11689759106493 -8.822371117669086 -4.103640001114734 -3.348750419884209 11.616370595834965 4.617104924161519 3.135290990195825 -13.890794136038881 6.1302993773204575 -2.110211093821631 -2.876955056879845 10.335257370984165 3.5474513508577026 4.464584021979098 -3.302753520167927 13.339976308715102 8.026631185512114 -2.346887649818436 -6.481822885067945 5.3421127152966905 5.542279923463731 -4.931143223287495 0.5514236339607232 -6.648242152143016 -1.209643676852814 15.1513150494627 18.50057747992458 -9.30456210381697 1.3287876904335174 -3.4319048504839906 2.7666323595185096 -6.985927435585832 -15.195206249945155 8.826583348565439 2.0693323723441357 -7.682669058545942 18.801365234569783 -4.6394096029283345 -2.4287998332412615 -10.765218657965288 4.9395712149430455 2.0722874748812834 -7.39487372713502 9.429478603150056 14.206160858097963 -8.487430349616801 2.6984046693688755 4.343429676458107 2.360311864224907 -15.710839646400418 1.9608970158846621 -3.66873852391112 -2.6976698160972408 -6.684277320672233 -2.0779731186578605 -3.736734676702173 -2.0737546573424175 -14.222452895330917 3.102373312589709 8.106604460436559 -15.700786000565348 6.032158262325126 1.3128823090498922 12.18924278322836 0.7574527751671135 -8.245698723336549 8.894688543344285 24.60047640586519 0.5399118527410361 9.602619922221127 -5.500299109914125 6.430664972510259 -2.6436148116984706 0.6047424946352877 -5.126981788980135 -11.923407833560292 -4.502712846853538 -19.789110323217148 3.333620168602508 8.570197913163366 -16.443931726479214 4.783067913782801 2.2756073607071152 12.226035481009802 -11.611832664210286 22.538957528067463 9.918095089216543 2.557750988333386 -3.817529475464431 1.0060509087912979 -3.4481302924966353 10.963026771826895 -4.103498652727966 22.83017016612984 -1.8596016532870432 -12.904346826497683 11.99555202342081 -11.021562825797968 9.840541238821675 0.11057117531988236 -11.430657634913988 -6.556494124855839 -2.7397456843920667 -7.542432373231048 0.4670149829060174 -1.343268005558513 9.60675705153929 -1.068427098300491 -20.437968446643755 -6.290075796425588 -3.3281498105705927 -3.112157400334511 2.542890801544444 -17.699895658086728 -4.884319672398041 -5.593294065022418 -0.8027878505108391 0.7037657385152065 1.5660252354407431 -5.3163759239111785 -12.013248044485367 -5.514225032436707 -14.648191947737295 -2.054798653280748 -1.926464651543718 1.9370264015833962 4.152635818454768 -5.737854720552864 -21.78958754696159 -1.467209472295462 -6.023072747404152 8.365311994036741 6.670840370980397 -0.8152038956502919 -9.553608386732412 11.094925567232085 2.759892289458543 6.833939445719623 -3.932887720342483 -10.607442642934929 11.382995116295522 -7.271052417815898 7.16201878269508 3.9155270400255926 -1.1750306493950697 -2.050419797445107 -5.749172768656059 23.237708782550378 -1.0015774017310997 -1.1242345752078007 3.524585140593251 2.7830574066408342 2.5492133942644695 0.12068619163409144 -9.240239611627826 7.4880769002680285 -2.743419257559021 -19.685616211922255 -4.797421719087942 9.181550025914365 -9.025368711046784 -5.995655046854514 -1.1747484156601353 1.3492562560475285 -13.596060957808861 -1.5377965591098541 -0.6859169684228129 13.217741683199744 -3.7139477151759284 5.962360085210369 0.7523548033960621 3.164936922618749 -3.259040769223548 -5.901074836534747 0.5695144291333669 -15.470020788775392 4.768684568026374 1.5732200729651473 -5.233250587507539 -1.5506757570317404 5.420463330298548 -18.57717962918539 1.6583761559007864 11.572584824978465 0.9052644883222709 2.314079355988689 1.0781615298358291 -10.862144132381998 4.781557536479345 6.299613679379728 4.792753637665123 -3.5363485303170448 6.789128808107533 -4.120801419730147 1.328942303388733 0.19005704325245687 -2.030805999412328 9.351232317313103 5.77210188005277 -7.442197864209606 4.820528514158614 -1.301334867297027 2.8228816293239807 -11.392891148043878 -4.7420734786231336 2.1627266771474813 8.453827519240383 2.678803161448048 -8.134873900232096 18.747553368220522 -4.052150009793479 2.021757340176274 4.862944785437672 0.4060398658699409 17.13088284924866 0.6146589965738632 12.406185948268675 -8.704213733770091 3.7669456067518343 -7.196219597175078 5.1371953400297885 -4.226339243405813 -7.064432749915464 -17.36970722535009 -3.777387121000852 2.718952832577448 -8.22274847996041 2.5337042295637664 -2.4219049237508417 5.112634885974894 -0.3072619998252327 -14.712819828261992 10.850068913484474 -0.8630339369068571 5.656521666770417 13.044042567338808 7.918749691173104 -2.4561759138726837 3.6093125787201883 0.9694898554653907 2.6691585437823706 -11.914144807203023 -4.760556916776407 10.782686713909024 12.5051939006566 5.429874278224334 -0.23830616907341362 8.835995529074523 -0.0777675293151382 -3.8033587563981284 -3.6944972352083836 -2.927270652397354 -7.5443771515276055 1.6686348829077513 -2.0076364911259037 -12.629791598008051 9.207427972472335 2.8572154262741907 8.910743404533036 -11.161189690000967 10.100946293878208 -13.180558029577659 -0.584017436183681 5.997042148320142 -6.591274792831516 -5.973846889710622 4.7644433257362255 -11.574181566680153 11.64710479049949 5.666559420048158 -4.712963331698545 -1.3771023967717546 -0.32802100985310556 3.193993118903372 -6.120657136912657 -7.210577447856622 -8.966699618766837 -4.9082003008455 0.6326448130932847 -0.3525240960226953 -2.965197651690461 12.383719566758293 9.907711726636894 16.657326139175403 6.389063929615802 0.5108642596250008 -12.628928972045033 -2.1947526074152006 0.7844733323388536 16.310598797465385 4.367535656559613 -8.309027557065482 4.15886074210066 -1.8333873010248274 5.819201513043876 0.15966861391158382 -6.111510494611722 -1.7621517088612049 15.887381182184921 6.417307622775219 -6.221219571478296 15.187546039816226 -11.150120071665091 1.1854182054194786 -10.082693313236755 8.005166031332164 -3.238960741229865 -9.238272278420325 -1.6615327416563452 1.1230133076508642 -1.3866637924977883 4.025243419711964 -5.599497032715865 3.214758528905253 -3.679182286864754 -3.4295002879329934 3.423263253277451 -3.521938085750562 -8.359553714745635 0.04268267470227749 2.411193631677667 -7.489726371936828 10.22427821951085 -4.863913058096584 0.07411300153755662 -3.1927266401603527 -8.113764023326254 -16.813141459981548 4.969691774935776 -9.280599909133594 -9.446125543034553 8.830173797003356 0.4635536059365215 1.8995275768650903 -7.890990774056546 -6.166176743469062 0.7567025590819313 -5.004465345245153 -7.017829706576652 -4.325555773504596 -3.8178136347402076 -7.360231957535089 12.620665489156734 5.710144461010217 -3.2033806339328597 -1.9632446121871299 -0.5144604667989962 0.9475688784591261 -7.54293361403858 1.2399750718307312 3.374148373155009 5.923925041690003 -8.402702015156807 -11.888775943138361 -0.4795040389499904 -3.502809720898677 2.987100209651027 10.39600394876794 -8.901558454596184 -4.374755040317295 2.1810548639083875 2.606754961896078 3.036314851562074 -2.5912302667367926 0.8958530877153723 -7.449925625079784
3.5552831624259733 -7.401530949706596 8.145260368849959 -7.673821391208355 -0.21478172996656852 7.196294648294854 -2.899929446354366 -7.853178633140199 -8.011022760858044 7.840280690753325 0.589431010139182 -3.7841986387426423 -9.152458383166628 -3.2110158322516167 5.6669445802692815 14.996584454334734 2.554112368618047 -0.8851176730284915 3.690610530457214 -16.482265177516044 7.37385199539221 3.689000076659039 8.748155850733175 13.608788134464737 2.8213246525384097 5.368648101757821 0.22849443044303408 4.654138032399766 -3.5758302247692155 -3.3925059521466476 -4.224873806755308 1.390731542293084 5.7506631672297965 1.6796319073336619 -3.187013259821795 -7.508024390375258 -1.9538669522378205 -7.094525955101269 -8.696728130612119 4.774887936392268 6.405823727402857 -2.1919725181267005 8.515749848898837 9.506010867337917 -2.0310612380710515 -5.963381412110088 5.209435086283799 -6.72233263943951 -3.9430530147909546 -0.4652576019618842 13.3740422857895 8.49401029115755 7.44002340888894 1.4761910217502792 -11.427472779508376 -0.4263102606263507 -0.8076147518147168 0.28137126758912456 -7.030628576892463 -14.646895692480001 -3.6341587256581374 -2.546804824570048 4.163306584013279 8.176405747706585 -13.271413351704101 3.7433694084583893 -1.2759673127672033 1.3742426994564818 -7.613561728820052 2.2727868301019845 -5.961982045315226 -6.886189456482367 12.145955196435198 -5.285733472609349 -3.6098404415647556 7.333227809462195 4.749315198585045 -2.008819703041959 0.7566903631820403 10.046379309868913 -4.29785258287105 -4.012016181689405 4.845213831343287 -5.327915303759607 -0.37455235416345745 -4.06565295791143 -14.74406172781153 -4.130831281708598 -5.237589466916602 0.3313940275494881 8.923565108555792 -17.14156149019283 -6.8555461626708905 -13.084508260029223 2.5510594618367217 4.108325576294084 -1.8151609297459066 16.167019204410508 -7.2967491689591935 12.828710004239756 -1.8355420405079033 -6.197623050564583 -3.2746088481778286 0.1939829397603674 -6.169325685070205 0.5952068092682655 4.518337126736829 -2.2967286078691442 10.502521925422114 -3.4570755582084365 -8.741094054869318 -7.0448777998430145 2.778125282679835 -7.263888546325437 6.357269874585408 -12.156888094632318 -0.5687060623224289 8.720407473803606 -1.780890950700728 -2.0370601669025694 -8.893683161332413 4.306743849718547 -7.590021912738133 -7.561413544831785 -6.2789841339931955 -13.518577716980184 -3.2541911202113236 7.318306478182161 -1.1951384305005492 -11.910754234084045 5.943895010175147 10.370755361726609 -8.560208251597139 6.197247247306099 0.7139683834331794 -1.4874194556350817 5.07834025677525 7.157659231145837 -3.1574693371022007 -1.8274257132183478 -8.799971570160453 3.15341698364629 0.39055483609191555 -2.3394567331920078 -2.151156827734994 -5.540520443714934 0.42895285896062374 -11.063619826625075 4.76545122665875 0.13512603959811173 9.981776511677133 4.298507543807662 4.262752476663256 1.039876436130544 -19.229364122571198 -3.2654082976663856 2.130820635105738 9.24395864730059 -3.693980400648701 1.2639380430878682 10.701754306188457 -7.549213770354626 -4.689108045784877 8.430047661820991 11.322438649599107 15.24453149696719 -27.098240627184406 -8.292538057408045 -3.030192678927684 -3.348750419884209 10.44994564526089 5.488454444452171 3.368527705592238 -11.66007318593655 7.390123237181635 -2.110211093821631 -3.2373605176303553 8.75667514705302 6.554595449244157 7.043410366079965 -3.266644576233267 13.006088060452049 9.228593043901133 -0.9991238449012299 -6.481822885067945 4.990546016397602 5.542279923463731 -4.931143223287495 0.8691833254558365 -6.648242152143016 -1.209643676852814 15.1513150494627 18.095429889387386 -10.223579231145719 2.299463598177462 -3.4319048504839906 -0.23747676633892045 -6.985927435585832 -15.195206249945155 7.770486930345469 2.0693323723441357 -6.7635083232177795 17.47712260079927 -4.179783118035186 -2.4287998332412615 -10.241975717444353 3.0230131251794536 2.110868570775589 -7.39487372713502 8.165536895487024 11.48560993621298 -8.487430349616801 2.6984046693688755 5.401368171789775 3.5255201648187198 -17.015298992640766 1.9404061980106828 -3.66873852391112 -3.9088765198346582 -6.684277320672233 -2.9865525920962224 -3.7054018558747126 -1.7690922308241968 -14.222452895330917 3.536846773584202 7.851643016010352 -15.525882046442671 7.664460598019664 1.2381508082153962 12.669193307986303 -0.7410383305157431 -8.245698723336549 9.058078428373378 24.60047640586519 -0.9703435899537639 8.519499408520389 -5.500299109914125 9.052822378849045 -2.6436148116984706 1.188607918326983 -5.126981788980135 -11.923407833560292 -5.325839747780716 -21.894868180825647 3.333620168602508 6.581682478121612 -18.466232979774187 4.783067913782801 3.2969952049632396 11.373873949002862 -10.761846756007692 22.248746319152243 10.606749145257721 4.04716698699792 -3.6281705811563354 1.7029164260360043 -4.665601287490336 10.963026771826895 -2.9208939762144843 22.62032969358511 -2.300485798033566 -12.904346826497683 10.996369654668465 -11.021562825797968 9.230024270399378 0.8252168265652284 -11.225922307377761 -6.556494124855839 -2.7397456843920667 -6.781224527028269 0.0206478975861209 -1.1561273026267962 9.60675705153929 -1.0194051953504253 -18.91457252703392 -6.679151230490634 -3.2420354072672413 -2.117197320861003 2.6787317492465297 -17.699895658086728 -4.936938146887338 -6.54109228092676 1.5266855084672042 1.1876979311295526 0.6320354944138088 -5.573780241493612 -12.013248044485367 -5.514225032436707 -14.648191947737295 -2.054798653280748 -1.926464651543718 1.9370264015833962 4.152635818454768 -1.6998363527475921 -22.620674823091676 -0.021280039049496047 -6.023072747404152 8.253813208599798 6.670840370980397 -0.8152038956502919 -9.26265665563469 10.927768393790515 2.759892289458543 6.833939445719623 -3.932887720342483 -12.49578928743338 9.994636076990655 -7.628092524392233 7.799399834776005 2.1528202974832213 -0.29634260593333916 -2.647164359051991 -5.749172768656059 23.237708782550378 -0.8514685269566955 -0.9400145854972516 3.524585140593251 3.2243742346404236 2.225780196586131 0.12068619163409144 -9.543581546919757 7.205715188705147 -2.743419257559021 -19.685616211922255 -5.15376164170682 9.289626833024485 -8.218393330808754 -5.995655046854514 -1.3937776002314557 1.3492562560475285 -13.030765475069432 -1.145384229276838 -0.7520705620143711 10.904013804881243 -3.0174391765927915 5.3806158860560425 0.7523548033960621 3.164936922618749 -3.259040769223548 -7.631988214574266 0.5695144291333669 -17.034966822146394 4.768684568026374 2.525292123387613 -5.233250587507539 -1.5506757570317404 2.7624134108915297 -19.205469314530493 0.9631946651831338 11.027149920046222 1.0122833243653848 2.5143717493147713 1.0781615298358291 -10.862144132381998 4.781557536479345 7.029271961192349 4.244416536710471 -3.0116639667660956 6.789128808107533 -5.5703899731504185 1.328942303388733 0.19005704325245687 -2.030805999412328 9.351232317313103 5.968406511947451 -7.442197864209606 4.178298668229057 -1.301334867297027 2.8228816293239807 -11.392891148043878 -4.7420734786231336 1.8492056219498605 10.388763602906215 2.678803161448048 -8.134873900232096 19.83103705541144 -4.458062292193459 3.179661965794269 4.365656671243164 1.035193886890025 16.785357566561046 1.3751402502140126 12.406185948268675 -8.01169201140062 4.05792939494582 -7.601996232272544 5.1371953400297885 -4.226339243405813 -7.7635009547971725 -17.79945257817653 -3.312516988219458 1.8084640317492613 -8.878976330885651 2.5337042295637664 -2.4219049237508417 5.112634885974894 -0.3072619998252327 -14.712819828261992 13.223171281526938 -0.8630339369068571 5.656521666770417 13.044042567338808 7.918749691173104 -2.4561759138726837 3.6093125787201883 0.6930482919501171 1.5863630379319955 -9.06238489104166 -4.760556916776407 10.782686713909024 12.957226666075229 5.058904206840877 -0.5624193026564193 8.100570970464288 -0.9371486905943878 -5.69467065583609 -4.4640366076579445 -4.005949920971429 -7.5443771515276055 0.43944184446498535 -2.0076364911259037 -13.247943947000946 9.207427972472335 2.8572154262741907 8.910743404533036 -11.229968293329819 10.868249402800814 -13.180558029577659 -1.4218919770447505 4.756234326423954 -5.816591820372307 -6.502904728387698 4.7644433257362255 -12.094554467622025 11.209053685995233 5.666559420048158 -5.345751628935519 -1.3771023967717546 -0.7840369266348451 3.2744370719662226 -6.1790078445586 -7.210577447856622 -8.966699618766837 -4.9082003008455 0.42723624722418163 -0.3525240960226953 -3.359564792480179 12.415222785571263 9.907711726636894 16.841309762893818 7.394527898190486 0.5108642596250008 -13.638721101972097 -2.54536248728517 0.7844733323388536 16.310598797465385 6.0658468316720295 -8.00963079195363 4.15886074210066 -1.8333873010248274 5.359601900200473 0.9018045420594634 -6.355202690669417 -1.7621517088612049 15.664059063366576 6.305669110843053 -6.221219571478296 15.976781258868915 -11.150120071665091 1.1854182054194786 -10.082693313236755 8.005166031332164 -4.720796473601485 -9.238272278420325 -2.4021919614226745 -1.0166642732196247 -1.1932290956429836 4.025243419711964 -5.599497032715865 -2.0427902979228465 -5.092131073974038 -3.4363204978182234 3.8729130613954585 -3.521938085750562 -9.292672231443241 -0.9159410384646295 2.411193631677667 -7.489726371936828 10.694709834891553 -5.580621689101072 0.07411300153755662 -4.334237347707999 -8.113764023326254 -15.717853012509313 4.969691774935776 -9.59434821731283 -9.446125543034553 8.830173797003356 0.23786117384435587 1.4595341713027388 -7.890990774056546 -5.02768414883776 0.3884104153208592 -3.4103620684055564 -7.5569563157821635 -4.325555773504596 -3.845231995444858 -7.055141469167878 12.620665489156734 5.148438212960612 -3.381959312490216 -1.7993341262579317 0.385573829153086 0.9475688784591261 -7.54293361403858 -0.5991781530374568 2.9409277829247675 5.4645290476418715 -8.402702015156807 -11.888775943138361 -0.2814056718769721 -3.4971167241415317 3.66274576997338 10.39600394876794 -8.949192254069624 -4.495882260974845 2.886805760669863 2.610359287996567 4.3845152550807605 -2.5912302667367926 1.2847966589560014 -7.449925625079784
2.769828267770656 -5.999563838338026 8.145260368849959 -7.430901064568019 -0.21478172996656852 7.193359526948048 -3.320798305265463 -7.853178633140199 -8.011022760858044 7.840280690753325 1.4354187826266285 -3.7841986387426423 -9.152458383166628 -3.2110158322516167 5.511906492704346 15.557222647625403 2.2946792856615517 -1.4053752973971694 2.187902818264874 -15.444789679754837 7.37385199539221 2.2181118395740254 8.49277307229763 13.356251849165828 1.9797995921652274 5.368648101757821 0.6949613656728567 4.654138032399766 -3.5758302247692155 -2.41614396276984 -4.224873806755308 1.390731542293084 5.9632540039697215 1.0320900031883693 -3.4134823072814617 -7.985713158796643 -1.2656523629962328 -7.119721418478456 -8.41515744617125 4.623867399752274 6.405823727402857 -3.0397220790956903 8.515749848898837 7.430595710218687 -2.0310612380710515 -6.570878815594721 5.209435086283799 -7.054604735316724 -3.9430530147909546 -0.6318300265319395 13.520667920483563 7.833639896554468 7.473929296430975 1.0997608200324605 -12.921221226491003 -0.4263102606263507 -0.8076147518147168 0.46130683355376906 -6.858921713965487 -14.161290051714845 -4.837256051750062 -2.546804824570048 4.645530531790349 6.266647186068728 -12.809344471239765 3.7433694084583893 -2.0636299477070557 1.3742426994564818 -8.000942886682786 1.2009154733965708 -5.961982045315226 -6.886189456482367 11.71961171786821 -5.943410405903144 -5.404446045344551 7.024344438056538 5.569747866731176 -2.008819703041959 -0.4157540088265145 10.497448301544699 -4.737130864155226 -4.554361949082471 4.845213831343287 -6.330460215219437 -1.947853002567677 -4.06565295791143 -15.47401642104429 -4.130831281708598 -5.237589466916602 0.3313940275494881 8.923565108555792 -17.600833194968914 -8.330083913249725 -12.587662478073408 5.197469410151147 4.108325576294084 -1.8151609297459066 16.167019204410508 -7.180817122298936 11.915394553769545 -1.3469314684571576 -6.197623050564583 -3.8669408343724925 -0.9933794279360217 -4.612326266200306 0.09058321436325778 4.518337126736829 -2.3955869844715654 10.502521925422114 -4.281650654778413 -8.741094054869318 -7.265237646238971 2.778125282679835 -4.873587712193482 6.126609620249833 -13.255299571347075 -0.16009440052031287 7.975402828279794 -1.7438280425895296 -1.0817044947507313 -8.893683161332413 4.863570816080056 -7.590021912738133 -7.23771856129853 -6.252954371214344 -13.518577716980184 -2.521744496696472 7.318306478182161 -1.1951384305005492 -12.41866257791972 5.943895010175147 10.449361448439321 -8.560208251597139 6.673924268030648 0.07802572047056017 -1.4874194556350817 7.378622599448918 7.157659231145837 -4.4594253613687425 0.4400696288216003 -8.270857414440286 3.15341698364629 0.39055483609191555 -3.4178233282376502 -2.151156827734994 -5.540520443714934 0.42895285896062374 -11.063619826625075 4.76545122665875 0.13512603959811173 9.981776511677133 4.298507543807662 4.121982933843687 0.13598604116560753 -17.187117362147674 -2.640544842016075 0.2701410658629575 8.078689610007979 -3.693980400648701 3.36833219237359 10.701754306188457 -7.549213770354626 -5.420111865383182 6.434111744586382 11.322438649599107 14.094377359239884 -27.098240627184406 -8.822371117669086 -4.103640001114734 -3.348750419884209 11.616370595834965 4.258804890207922 2.881453807386981 -13.890794136038881 7.390123237181635 -2.110211093821631 -2.820252483352361 9.691504298552914 3.014877390563753 7.043410366079965 -3.426702118197047 14.321045502929401 8.037168271511952 -1.7164783148009657 -6.481822885067945 4.990546016397602 5.542279923463731 -4.931143223287495 0.8691833254558365 -6.281099202711658 -1.209643676852814 15.1513150494627 18.095429889387386 -9.30456210381697 1.5740322425323083 -3.8763550326859444 0.21818369042052765 -6.985927435585832 -14.367504484695282 8.826583348565439 2.0693323723441357 -6.516629601355072 18.801365234569783 -4.424915356775669 -2.337829676380222 -10.765218657965288 6.056153660254533 2.110868570775589 -7.39487372713502 9.429478603150056 15.362197394160471 -8.487430349616801 2.6984046693688755 3.98857549669521 3.5255201648187198 -15.710839646400418 0.9554009395673853 -3.66873852391112 -2.6976698160972408 -6.03285338433378 -3.0770444219778543 -3.207873460352575 -2.0737546573424175 -13.666876366343214 3.384833152551093 8.626259888821147 -16.63172339995826 6.032158262325126 1.2055551134495957 12.18924278322836 0.7574527751671135 -8.131167330999892 8.894688543344285 24.60047640586519 0.2921185256712959 9.602619922221127 -5.500299109914125 7.582251753962821 -2.6436148116984706 1.514777267340342 -3.2879516963448725 -11.923407833560292 -4.502712846853538 -19.789110323217148 3.333620168602508 6.280045255399361 -15.696471550406192 4.783067913782801 2.596537999960069 12.226035481009802 -11.611832664210286 22.57662944836972 9.959312218508892 2.557750988333386 -4.9767720668089535 2.065796733102835 -3.049855872978974 10.963026771826895 -2.9208939762144843 22.83017016612984 -1.8596016532870432 -12.774082502664058 11.99555202342081 -11.021562825797968 9.840541238821675 0.4715601278252264 -11.430657634913988 -6.556494124855839 -1.6765459304374108 -7.398803330514624 0.4670149829060174 -1.343268005558513 9.55092402566829 -1.068427098300491 -20.437968446643755 -6.290075796425588 -3.3281498105705927 -2.117197320861003 2.542890801544444 -17.33872354432934 -3.9368163286988973 -5.593294065022418 -0.8027878505108391 1.3339385162400414 1.5660252354407431 -5.3163759239111785 -7.555472093716721 -5.514225032436707 -14.746408959761125 -2.054798653280748 -2.607220749440348 1.9370264015833962 4.152635818454768 -3.6042560637280285 -21.78958754696159 -1.467209472295462 -6.023072747404152 8.891087748401052 6.670840370980397 -0.8152038956502919 -9.553608386732412 11.094925567232085 2.759892289458543 6.451677527337744 -3.932887720342483 -10.607442642934929 11.382995116295522 -7.271052417815898 6.737601620856351 3.751731510465174 -1.1750306493950697 -2.647164359051991 -5.749172768656059 22.433425978814892 -1.129239333999329 -1.7447329744614568 3.524585140593251 3.2243742346404236 2.6027667811741955 0.12068619163409144 -9.8512754555169 7.4880769002680285 -2.743419257559021 -19.931562668877316 -4.797421719087942 9.181550025914365 -7.145474189993531 -5.995655046854514 -1.1111502887688842 2.7296637555600958 -13.596060957808861 -1.5377965591098541 -0.6859169684228129 12.567258369491956 -4.711777322805709 6.2000143632808005 1.062717074693926 3.164936922618749 -4.057869413701551 -8.64731254864866 0.5695144291333669 -15.470020788775392 4.793690291280925 1.5732200729651473 -4.191686345731659 -1.5506757570317404 2.7624134108915297 -17.349269905586578 2.566379429458794 11.572584824978465 0.9052644883222709 2.314079355988689 1.0781615298358291 -10.862144132381998 4.781557536479345 6.299613679379728 5.990445695292165 -3.5996303349087135 6.789128808107533 -4.66854487885026 1.9606102034361768 0.19005704325245687 -2.030805999412328 9.351232317313103 5.77210188005277 -7.111305388746359 4.820528514158614 -1.301334867297027 1.3057736509011773 -11.340616491663873 -4.74422946570417 2.1627266771474813 10.388763602906215 2.678803161448048 -9.294179099371865 18.747553368220522 -1.5409435582936724 2.4465385563602524 4.365656671243164 0.9134049948395319 17.403276463246662 -1.582733257670084 12.406185948268675 -7.7047758628142295 3.7669456067518343 -7.196219597175078 5.1371953400297885 -4.067116650310001 -7.064432749915464 -17.79945257817653 -4.070828443825583 2.12659385446598 -8.878976330885651 1.407061245596994 -1.3031356506014926 5.706661473403251 -0.7903142486699896 -14.712819828261992 13.223171281526938 -0.8630339369068571 6.3782319583578735 13.312094706313719 6.970915216345698 -2.4561759138726837 0.4459015060225733 0.6930482919501171 3.7193316390933937 -11.914144807203023 -4.760556916776407 10.22518148274338 12.957226666075229 5.058904206840877 -0.23830616907341362 8.100570970464288 -2.4179122477113024 -5.69467065583609 -4.4640366076579445 -5.368548550707508 -6.510563393107207 0.8362315951710899 -2.0076364911259037 -12.629791598008051 9.207427972472335 2.8572154262741907 7.913588281669402 -11.229968293329819 11.196503395305854 -13.180558029577659 -1.7333958789339587 5.997042148320142 -5.816591820372307 -5.973846889710622 4.7644433257362255 -11.574181566680153 11.209053685995233 5.666559420048158 -4.712963331698545 -1.3771023967717546 -0.32802100985310556 3.193993118903372 -6.883629379738499 -7.161833193467126 -8.966699618766837 -4.9082003008455 0.42723624722418163 -0.3525240960226953 -3.359564792480179 12.383719566758293 9.907711726636894 16.657326139175403 6.389063929615802 0.5108642596250008 -12.628928972045033 -2.1692358476323634 1.854081920476121 16.310598797465385 6.0658468316720295 -7.772365258864997 3.1278089115625716 -1.8333873010248274 4.430877650951929 -0.7216435241843043 -6.111510494611722 -1.7621517088612049 15.887381182184921 6.417307622775219 -6.221219571478296 14.87060775048269 -12.366426018943711 1.4173218002141343 -10.082693313236755 8.005166031332164 -3.238960741229865 -9.238272278420325 -1.5599240277878115 1.3563617309305633 -1.5206459347380503 3.4750243273325356 -5.599497032715865 3.214758528905253 -3.679182286864754 -6.059074795972739 3.0651888546544517 -3.521938085750562 -9.292672231443241 -0.23901602229721375 2.411193631677667 -7.489726371936828 10.22427821951085 -4.863913058096584 0.9626101410943293 -3.1927266401603527 -8.113764023326254 -16.813141459981548 5.1521086554474635 -9.59434821731283 -9.446125543034553 8.830173797003356 0.4635536059365215 1.8995275768650903 -7.890990774056546 -6.166176743469062 1.5966186122919916 -3.4691127411880767 -7.017829706576652 -4.325555773504596 -3.8178136347402076 -7.626242155187648 12.620665489156734 5.710144461010217 -3.0789657070641434 -1.9632446121871299 -1.9784064018404095 0.9475688784591261 -7.54293361403858 -0.5991781530374568 2.9409277829247675 5.328597859651083 -7.596882072181703 -12.243984879491299 -0.2814056718769721 -3.8435323335919414 3.66274576997338 10.39600394876794 -8.949192254069624 -4.5181175651846495 3.467934056563105 2.610359287996567 3.476617909701008 -3.3829467165750473 0.8958530877153723 -6.681615067145213
2.7522141694996014 -6.244694453989768 8.145260368849959 -7.359195613219472 -0.21478172996656852 7.737485969982638 -3.320798305265463 -6.993570022762604 -8.549489495914898 7.840280690753325 0.33764740128041915 -3.7841986387426423 -9.152458383166628 -3.2110158322516167 6.5644924278528975 15.557222647625403 2.2946792856615517 -0.8851176730284915 2.187902818264874 -15.444789679754837 7.37385199539221 3.1019976451089213 8.748155850733175 13.356251849165828 2.8213246525384097 6.256155309489624 0.9698760633331346 4.654138032399766 -3.305242021439206 -3.2751426366697647 -3.768607577085417 1.7341295007621813 6.619763990869189 1.6796319073336619 -4.661220189702853 -7.985713158796643 -1.3437035212781705 -7.094525955101269 -8.41515744617125 4.623867399752274 6.928240501798384 -2.1919725181267005 4.979629318044859 8.521586631587224 -2.0310612380710515 -6.570878815594721 5.985784343662727 -8.330870707940306 -3.9430530147909546 -0.6318300265319395 13.520667920483563 8.49401029115755 6.645504070793132 1.0997608200324605 -11.427472779508376 -0.4263102606263507 -0.8076147518147168 0.46130683355376906 -6.858921713965487 -15.378525339783982 -3.6124142124914407 -2.546804824570048 4.163306584013279 4.635873299233046 -12.809344471239765 3.7433694084583893 -1.6335187732103686 1.3742426994564818 -8.90010608138866 1.2009154733965708 -5.9529080274709605 -6.091292084014993 12.145955196435198 -5.285733472609349 -5.404446045344551 7.024344438056538 6.056235792652337 -2.992147751376728 -0.4157540088265145 10.046379309868913 -4.29785258287105 -4.012016181689405 4.845213831343287 -6.601788343995078 -3.933507589220994 -4.06565295791143 -15.47401642104429 -5.369556636525851 -5.237589466916602 0.3313940275494881 8.923565108555792 -17.585142384302603 -6.8555461626708905 -12.056032285223878 5.094638894925996 4.382663248125672 -1.8151609297459066 15.853670511721681 -7.2967491689591935 11.915394553769545 -1.8355420405079033 -6.197623050564583 -3.8669408343724925 -0.9933794279360217 -4.612326266200306 1.3226006208219827 4.518337126736829 -3.5546234888671737 10.502521925422114 -4.281650654778413 -8.966902120953902 -6.380172687496802 2.778125282679835 -4.873587712193482 6.126609620249833 -12.156888094632318 -0.16009440052031287 7.975402828279794 -1.780890950700728 -2.0370601669025694 -8.893683161332413 4.863570816080056 -7.590021912738133 -7.23771856129853 -6.252954371214344 -13.518577716980184 -3.2541911202113236 8.010051506565734 -1.1951384305005492 -12.41866257791972 5.943895010175147 11.941704794703655 -7.725036766289162 6.673924268030648 0.07802572047056017 -1.4874194556350817 7.378622599448918 7.157659231145837 -3.1574693371022007 -1.790138326168121 -8.799971570160453 3.15341698364629 0.39055483609191555 -1.3374317292857858 -2.151156827734994 -4.1197684520967535 -2.047489220732918 -11.063619826625075 4.76545122665875 0.13512603959811173 11.64268410809396 4.298507543807662 3.1707020053270627 0.13598604116560753 -18.258774587439493 -3.2654082976663856 0.2701410658629575 9.24395864730059 -4.229633600563237 3.36833219237359 10.701754306188457 -6.66164467461123 -4.501781315058802 6.216993826669588 12.853105799165029 13.783630711602996 -26.858585142432666 -8.292538057408045 -3.5758466896190506 -3.348750419884209 11.616370595834965 5.162561724421738 2.881453807386981 -13.890794136038881 6.1302993773204575 -2.110211093821631 -2.820252483352361 8.912158359797429 6.554595449244157 7.043410366079965 -3.302753520167927 13.006088060452049 8.037168271511952 -1.4729723947788527 -6.481822885067945 5.3421127152966905 5.542279923463731 -4.931143223287495 0.8691833254558365 -6.648242152143016 -1.209643676852814 14.537867340720474 18.50057747992458 -9.30456210381697 2.4438855147726257 -3.4319048504839906 3.332899118703268 -6.985927435585832 -15.195206249945155 8.401953177919463 2.0693323723441357 -6.421092677599793 18.801365234569783 -4.6394096029283345 -2.0679978153155116 -10.765218657965288 4.9395712149430455 2.0722874748812834 -7.39487372713502 8.165536895487024 14.206160858097963 -8.487430349616801 2.6984046693688755 4.343429676458107 3.5255201648187198 -15.710839646400418 1.9608970158846621 -3.66873852391112 -3.9088765198346582 -6.684277320672233 -2.9865525920962224 -3.207873460352575 -2.0737546573424175 -14.222452895330917 3.102373312589709 8.626259888821147 -16.63172339995826 6.032158262325126 1.3128823090498922 12.18924278322836 0.7574527751671135 -8.131167330999892 8.894688543344285 24.675433079285423 0.2921185256712959 9.602619922221127 -5.500299109914125 7.582251753962821 -2.6436148116984706 0.66433403913388 -5.126981788980135 -11.923407833560292 -4.502712846853538 -21.894868180825647 3.333620168602508 8.570197913163366 -15.696471550406192 5.761578608192632 3.222849919065223 12.226035481009802 -11.01205778701636 22.538957528067463 9.959312218508892 3.420970881314121 -3.817529475464431 2.1970372935359777 -3.4481302924966353 10.963026771826895 -4.103498652727966 22.83017016612984 -1.2701886278506167 -12.904346826497683 11.99555202342081 -11.021562825797968 9.840541238821675 0.4715601278252264 -11.430657634913988 -6.556494124855839 -2.7397456843920667 -7.542432373231048 0.0206478975861209 -1.343268005558513 9.55092402566829 -1.068427098300491 -20.437968446643755 -6.480061634868163 -3.3281498105705927 -2.117197320861003 3.9696821747250954 -17.33872354432934 -3.9368163286988973 -5.593294065022418 -0.8027878505108391 1.3339385162400414 1.5660252354407431 -5.3163759239111785 -12.013248044485367 -5.514225032436707 -14.746408959761125 -2.054798653280748 -1.926464651543718 1.9370264015833962 4.152635818454768 -5.737854720552864 -21.78958754696159 -1.467209472295462 -6.023072747404152 8.652793864749201 6.670840370980397 -0.8152038956502919 -9.553608386732412 11.094925567232085 2.7996272415758074 6.833939445719623 -3.932887720342483 -9.935983267181406 11.382995116295522 -6.569565692083261 6.936524262450752 1.0164042508330815 -1.1750306493950697 -2.647164359051991 -5.749172768656059 23.057218438997147 -1.0015774017310997 -0.8330787754251747 3.524585140593251 1.5343341121457599 2.6027667811741955 0.12068619163409144 -9.8512754555169 7.4880769002680285 -2.743419257559021 -19.685616211922255 -4.797421719087942 9.952699627949901 -9.025368711046784 -5.089818566681689 -1.1111502887688842 0.30401324014311726 -13.596060957808861 -1.5377965591098541 -0.6859169684228129 12.041740262916118 -3.7139477151759284 5.3806158860560425 0.7523548033960621 3.164936922618749 -3.259040769223548 -7.322366994129863 0.5695144291333669 -15.470020788775392 4.768684568026374 1.5732200729651473 -4.191686345731659 -1.5506757570317404 3.5989859306811636 -18.57717962918539 1.6583761559007864 11.572584824978465 0.5059728028677741 2.790204211738283 1.0781615298358291 -10.199102917531611 4.781557536479345 6.299613679379728 4.792753637665123 -3.5363485303170448 7.173787269519449 -4.66854487885026 1.328942303388733 0.19005704325245687 -2.030805999412328 9.351232317313103 5.968406511947451 -7.442197864209606 4.820528514158614 -1.301334867297027 3.4341184485581557 -11.392891148043878 -4.74422946570417 1.683298586778312 8.453827519240383 2.678803161448048 -8.134873900232096 18.747553368220522 -4.363610371583734 2.021757340176274 4.365656671243164 0.4060398658699409 17.23375014494897 -1.2617272597634657 12.406185948268675 -7.7047758628142295 4.05792939494582 -7.196219597175078 5.716865887782295 -4.226339243405813 -7.064432749915464 -17.36970722535009 -3.777387121000852 2.12659385446598 -8.878976330885651 3.8650486961222894 -1.3031356506014926 5.706661473403251 -0.3072619998252327 -14.712819828261992 10.850068913484474 -0.8630339369068571 5.656521666770417 13.044042567338808 7.918749691173104 -2.4561759138726837 3.6093125787201883 0.9694898554653907 2.6691585437823706 -9.06238489104166 -4.760556916776407 10.22518148274338 12.5051939006566 5.776989513421419 -0.23830616907341362 8.835995529074523 -0.9371486905943878 -3.8033587563981284 -4.4640366076579445 -2.927270652397354 -7.5443771515276055 1.6686348829077513 -2.0076364911259037 -13.247943947000946 8.623716665453175 3.293593970474581 8.910743404533036 -11.229968293329819 10.100946293878208 -13.180558029577659 -0.584017436183681 5.997042148320142 -6.366775671890838 -5.973846889710622 4.7644433257362255 -12.094554467622025 11.444425144456078 5.666559420048158 -3.7525303157990058 -0.6730667329184846 -0.32802100985310556 4.1041964061355385 -6.1790078445586 -7.210577447856622 -8.966699618766837 -4.9082003008455 0.42723624722418163 -0.3525240960226953 -3.359564792480179 12.383719566758293 9.907711726636894 16.657326139175403 7.654754687835553 0.5108642596250008 -12.628928972045033 -1.8256300017456153 0.7844733323388536 16.310598797465385 5.285859431622989 -8.309027557065482 4.15886074210066 -3.3852657257743033 5.819201513043876 0.7061834623978689 -6.111510494611722 -1.7621517088612049 15.887381182184921 6.417307622775219 -5.997552110821408 15.187546039816226 -12.366426018943711 2.388931741692744 -10.054275924988302 8.005166031332164 -3.238960741229865 -10.486291583638467 -1.6615327416563452 1.1230133076508642 -1.1932290956429836 3.4750243273325356 -5.599497032715865 2.398131778601419 -5.092131073974038 -3.6945317701378437 3.0651888546544517 -3.521938085750562 -9.292672231443241 0.04268267470227749 2.411193631677667 -7.489726371936828 10.22427821951085 -4.863913058096584 0.07411300153755662 -3.3636645208044498 -8.113764023326254 -18.550903128564183 3.97300203491159 -9.280599909133594 -9.446125543034553 7.667389594558402 0.4635536059365215 3.2778617442167546 -7.964834195301471 -6.166176743469062 0.7567025590819313 -4.002017088740773 -7.017829706576652 -4.325555773504596 -3.8178136347402076 -7.360231957535089 12.620665489156734 5.710144461010217 -3.2033806339328597 -1.9632446121871299 -0.5661368418381781 0.9475688784591261 -7.54293361403858 0.022354240059648145 2.9409277829247675 5.328597859651083 -8.402702015156807 -11.888775943138361 -0.4795040389499904 -3.296848583567952 3.66274576997338 10.39600394876794 -8.949192254069624 -4.374755040317295 3.467934056563105 2.606754961896078 3.476617909701008 -3.9583175291675463 0.8958530877153723 -7.449925625079784
